%YAML:1.0
opencv_ml_ann_mlp:
   format: 3
   layer_sizes: [ 1024, 16, 62 ]
   activation_function: SIGMOID_SYM
   f_param1: 5.9999999999999998e-01
   f_param2: 1.
   min_val: -9.4999999999999996e-01
   max_val: 9.4999999999999996e-01
   min_val1: -9.7999999999999998e-01
   max_val1: 9.7999999999999998e-01
   training_params:
      train_method: BACKPROP
      dw_scale: 1.0000000000000001e-01
      moment_scale: 1.0000000000000001e-01
      term_criteria:
         epsilon: 9.9999999999999995e-07
         iterations: 1000
   input_scale:
      - 2.4882026059985916e+00
      - -1.9842283543388246e+00
      - 2.3561934538159726e+00
      - -1.8009224633313543e+00
      - 2.2943562050658590e+00
      - -1.7093325287638830e+00
      - 2.2693164379076873e+00
      - -1.6708011792167838e+00
      - 2.2531985600738795e+00
      - -1.6454691459761279e+00
      - 2.2419742389409794e+00
      - -1.6275560901139217e+00
      - 2.2301156559362170e+00
      - -1.6083670207802390e+00
      - 2.1873773227981825e+00
      - -1.5365824275247120e+00
      - 2.1552859923241097e+00
      - -1.4792826694727610e+00
      - 2.1083531688021289e+00
      - -1.3877755518747281e+00
      - 2.0597355375518545e+00
      - -1.2760945365399268e+00
      - 2.0300209321749434e+00
      - -1.1889249458386029e+00
      - 2.0137576295074306e+00
      - -1.1243732724946944e+00
      - 2.0058361966572331e+00
      - -1.0793688141858822e+00
      - 2.0016467167776568e+00
      - -1.0414114686761176e+00
      - 2.0002406109991151e+00
      - -1.0156324127879957e+00
      - 2.0004540052724300e+00
      - -9.7891839398555525e-01
      - 2.0045553533700140e+00
      - -9.3474589763917171e-01
      - 2.0071295166051439e+00
      - -9.1905307800392921e-01
      - 2.0085629570841284e+00
      - -9.1164623609819517e-01
      - 2.0087774153972875e+00
      - -9.1059811034181126e-01
      - 2.0032700322563448e+00
      - -9.4442745077109602e-01
      - 2.0012836201760935e+00
      - -9.6480841649655380e-01
      - 2.0003297257070640e+00
      - -9.8200576356902369e-01
      - 2.0006646494041189e+00
      - -9.7454938763455967e-01
      - 2.0020676213800228e+00
      - -9.5555095518856303e-01
      - 2.0033120595147640e+00
      - -9.4408171300658139e-01
      - 2.0045677408195921e+00
      - -9.3466022895474898e-01
      - 2.0012030902149140e+00
      - -9.6591073837958563e-01
      - 2.0001311201464902e+00
      - -1.0115165183132153e+00
      - 2.0038431680029394e+00
      - -1.0639446481632322e+00
      - 2.0312937739652153e+00
      - -1.1932379876533954e+00
      - 2.6113957749384982e+00
      - -2.1452495376621719e+00
      - 2.3866655459316193e+00
      - -1.8445186965193434e+00
      - 2.2665563890996316e+00
      - -1.6664943479455003e+00
      - 2.2120759706056878e+00
      - -1.5786054671853509e+00
      - 2.1752370133376511e+00
      - -1.5153029885576663e+00
      - 2.1509853303058608e+00
      - -1.4713265606163601e+00
      - 2.1010354769626067e+00
      - -1.3723678881843475e+00
      - 2.0518095398352783e+00
      - -1.2549912098039053e+00
      - 2.0215054978669826e+00
      - -1.1577939658646945e+00
      - 2.0084271222918546e+00
      - -1.0961095697066103e+00
      - 2.0015988511169187e+00
      - -1.0407930525275395e+00
      - 2.0000005327450396e+00
      - -1.0007301602761720e+00
      - 2.0005694664068514e+00
      - -9.7641953930417880e-01
      - 2.0043111713807913e+00
      - -9.3646070057397313e-01
      - 2.0111686459157094e+00
      - -8.9975507095914242e-01
      - 2.0169022377954207e+00
      - -8.7816812228631869e-01
      - 2.0212731634707750e+00
      - -8.6439602531621651e-01
      - 2.0234262338914419e+00
      - -8.5820927008830261e-01
      - 2.0219187270424821e+00
      - -8.6250453978259434e-01
      - 2.0196445088135331e+00
      - -8.6931963701063331e-01
      - 2.0257489863381761e+00
      - -8.5189393871440522e-01
      - 2.0364154016970994e+00
      - -8.2651283376210460e-01
      - 2.0525826589926099e+00
      - -7.9547994979570813e-01
      - 2.0785128030620643e+00
      - -7.5631847879314607e-01
      - 2.0896825658915579e+00
      - -7.4203225641621662e-01
      - 2.1018801821549205e+00
      - -7.2771404782923987e-01
      - 2.0979216970391019e+00
      - -7.3222931910251210e-01
      - 2.0966548280542532e+00
      - -7.3370006778906871e-01
      - 2.0721194182917073e+00
      - -7.6509897229383150e-01
      - 2.0327488516117880e+00
      - -8.3466869273106625e-01
      - 2.0004716792767949e+00
      - -9.7851638068726032e-01
      - 2.0559457184886112e+00
      - -1.2661496829340018e+00
      - 2.7819285524175865e+00
      - -2.3578053271003303e+00
      - 2.4796001104696144e+00
      - -1.9726739713760704e+00
      - 2.3337782407813643e+00
      - -1.7682461019633082e+00
      - 2.2248441721102492e+00
      - -1.5997442562292663e+00
      - 2.1377259392703198e+00
      - -1.4463123673791394e+00
      - 2.0794360300427921e+00
      - -1.3243468096997135e+00
      - 2.0382903378104675e+00
      - -1.2157586865048065e+00
      - 2.0144288048071877e+00
      - -1.1275508158835907e+00
      - 2.0050055201599544e+00
      - -1.0732967143979282e+00
      - 2.0011099065103437e+00
      - -1.0338748344593265e+00
      - 2.0002212007122568e+00
      - -1.0149838294841838e+00
      - 2.0000161157257952e+00
      - -9.9599361011453136e-01
      - 2.0014248009289202e+00
      - -9.6295914307729213e-01
      - 2.0056414262568287e+00
      - -9.2765833770439243e-01
      - 2.0076917161488197e+00
      - -9.1605914624882512e-01
      - 2.0068679675206349e+00
      - -9.2048966650409303e-01
      - 2.0042452118853613e+00
      - -9.3693274981959029e-01
      - 2.0022807886945748e+00
      - -9.5336917713606240e-01
      - 2.0010647264805721e+00
      - -9.6789787395070959e-01
      - 2.0007978484199911e+00
      - -9.7214989660696716e-01
      - 2.0022720602336466e+00
      - -9.5345636151402402e-01
      - 2.0072699943377117e+00
      - -9.1829328672121446e-01
      - 2.0210150591600322e+00
      - -8.6516150336014519e-01
      - 2.0504556427546823e+00
      - -7.9919223628922054e-01
      - 2.0997442743757202e+00
      - -7.3013551988636138e-01
      - 2.1582407889633854e+00
      - -6.7353338065318735e-01
      - 2.1860273438765963e+00
      - -6.5178936725411396e-01
      - 2.1754679066686955e+00
      - -6.5975597114791695e-01
      - 2.1092347856008153e+00
      - -7.1962807178087218e-01
      - 2.0364879699206142e+00
      - -8.2635648430472441e-01
      - 2.0000011986769377e+00
      - -9.9890575811844584e-01
      - 2.2000890440579384e+00
      - -1.5584089517635891e+00
      - 2.9414440121898582e+00
      - -2.5491575485414368e+00
      - 2.5777759060536263e+00
      - -2.1020497791460970e+00
      - 2.3871734673759937e+00
      - -1.8452379370445018e+00
      - 2.2090325794603207e+00
      - -1.5735112089769252e+00
      - 2.1021083350820531e+00
      - -1.3746509275763528e+00
      - 2.0442842350728658e+00
      - -1.2337419957071518e+00
      - 2.0232402661727886e+00
      - -1.1645099419872302e+00
      - 2.0083764695117048e+00
      - -1.0958070691845601e+00
      - 2.0031199490271860e+00
      - -1.0574382578414578e+00
      - 2.0019771554640204e+00
      - -1.0454647820434457e+00
      - 2.0011467281528801e+00
      - -1.0344415925397730e+00
      - 2.0004917132969875e+00
      - -1.0224218288364033e+00
      - 2.0002477411530895e+00
      - -1.0158641531981820e+00
      - 2.0001678690496330e+00
      - -1.0130406352868733e+00
      - 2.0011810105456407e+00
      - -1.0349614121872146e+00
      - 2.0055726765698223e+00
      - -1.0774886826313945e+00
      - 2.0132304150730493e+00
      - -1.1218288180337255e+00
      - 2.0219048862989011e+00
      - -1.1593601326734198e+00
      - 2.0273257662320616e+00
      - -1.1795316282342829e+00
      - 2.0297437135352983e+00
      - -1.1879755414742885e+00
      - 2.0207451514424042e+00
      - -1.1547773601623557e+00
      - 2.0084609772435060e+00
      - -1.0963112916019877e+00
      - 2.0001100958141187e+00
      - -1.0105478475520857e+00
      - 2.0072621534810473e+00
      - -9.1833548365774476e-01
      - 2.0386077893981152e+00
      - -8.2186927324510028e-01
      - 2.1051691471928118e+00
      - -7.2405103714521257e-01
      - 2.1760692008234361e+00
      - -6.5929307957067884e-01
      - 2.1728022578690696e+00
      - -6.6182202800017231e-01
      - 2.0983037053790894e+00
      - -7.3178832296077445e-01
      - 2.0199727295746914e+00
      - -8.6830906577174027e-01
      - 2.0101489382114446e+00
      - -1.1059441297978709e+00
      - 2.3767929544820241e+00
      - -1.8304916314968647e+00
      - 3.0923356335623877e+00
      - -2.7254196633559293e+00
      - 2.6671849049517755e+00
      - -2.2159012585640134e+00
      - 2.3672188772978817e+00
      - -1.8168008025026032e+00
      - 2.1903907383774195e+00
      - -1.5417968657070200e+00
      - 2.0732925055273350e+00
      - -1.3098411527324512e+00
      - 2.0356043814907001e+00
      - -1.2073313428197316e+00
      - 2.0143176457926817e+00
      - -1.1270291467381615e+00
      - 2.0070597998633537e+00
      - -1.0876266302895297e+00
      - 2.0034936921883308e+00
      - -1.0608801164215158e+00
      - 2.0033278894361430e+00
      - -1.0593757992036756e+00
      - 2.0047429497631555e+00
      - -1.0712813700800878e+00
      - 2.0075871558460676e+00
      - -1.0909804294519538e+00
      - 2.0111198823252430e+00
      - -1.1111572672223977e+00
      - 2.0161141654938803e+00
      - -1.1352541034521104e+00
      - 2.0292256063635086e+00
      - -1.1861911828813467e+00
      - 2.0537655576240921e+00
      - -1.2603099439423058e+00
      - 2.0804221304222232e+00
      - -1.3266356804026755e+00
      - 2.1034180440553127e+00
      - -1.3774264870404640e+00
      - 2.1231433578351355e+00
      - -1.4178502630057273e+00
      - 2.1364706576452339e+00
      - -1.4439036902063838e+00
      - 2.1175830266314573e+00
      - -1.4066987835321054e+00
      - 2.0777066916935873e+00
      - -1.3203072038361239e+00
      - 2.0323732501184057e+00
      - -1.1968389346187902e+00
      - 2.0022939129230477e+00
      - -1.0490554988331373e+00
      - 2.0076514145139672e+00
      - -9.1626972202477008e-01
      - 2.0474714276139729e+00
      - -8.0456725867737622e-01
      - 2.0996157087681313e+00
      - -7.3028237632875403e-01
      - 2.1229968857151715e+00
      - -7.0543813309380543e-01
      - 2.0683564116188267e+00
      - -7.7050310009941780e-01
      - 2.0041324907408997e+00
      - -9.3774859529808896e-01
      - 2.0327659796102591e+00
      - -1.1981366196594294e+00
      - 2.4728615745201661e+00
      - -1.9635903926319636e+00
      - 3.1312954394075403e+00
      - -2.7703272547725848e+00
      - 2.6375568724458627e+00
      - -2.1785322171664059e+00
      - 2.3469886893540979e+00
      - -1.7875700541697923e+00
      - 2.1539704789279761e+00
      - -1.4768567263485917e+00
      - 2.0661137030841448e+00
      - -1.2922989363161674e+00
      - 2.0264470486820354e+00
      - -1.1763857450847699e+00
      - 2.0105148212801685e+00
      - -1.1079339008742499e+00
      - 2.0058642943548692e+00
      - -1.0795669424204528e+00
      - 2.0038944644517285e+00
      - -1.0643832487953879e+00
      - 2.0072543169237900e+00
      - -1.0888766347200971e+00
      - 2.0118326385102465e+00
      - -1.1148550237809964e+00
      - 2.0211506979098441e+00
      - -1.1563921378215074e+00
      - 2.0353897733692707e+00
      - -1.2066469504046511e+00
      - 2.0554418075182732e+00
      - -1.2648079258069427e+00
      - 2.0902264369318742e+00
      - -1.3488592298179047e+00
      - 2.1427411524558337e+00
      - -1.4558636341716704e+00
      - 2.1895124305478304e+00
      - -1.5402796948806210e+00
      - 2.2263333093831612e+00
      - -1.6021860828508763e+00
      - 2.2564588971723181e+00
      - -1.6506293803022996e+00
      - 2.2781160450616800e+00
      - -1.6844507055509439e+00
      - 2.2375901581229081e+00
      - -1.6204946195556877e+00
      - 2.1779281657593326e+00
      - -1.5200589376412985e+00
      - 2.0909242440413620e+00
      - -1.3504064588757623e+00
      - 2.0207048227082614e+00
      - -1.1546160420068579e+00
      - 2.0000462026474453e+00
      - -1.0068203935137339e+00
      - 2.0126929377696623e+00
      - -8.9350491874939419e-01
      - 2.0419783172440429e+00
      - -8.1503075985250462e-01
      - 2.0608372689437209e+00
      - -7.8189788631015589e-01
      - 2.0295812839710212e+00
      - -8.4216374065966004e-01
      - 2.0000056271409812e+00
      - -1.0023749747997075e+00
      - 2.0747743203156097e+00
      - -1.3133801311919877e+00
      - 2.4487069819658704e+00
      - -1.9307821645814101e+00
      - 3.0910505725861808e+00
      - -2.7239345575445255e+00
      - 2.5760530478022123e+00
      - -2.0998222656198999e+00
      - 2.2765699265870776e+00
      - -1.6820612570579627e+00
      - 2.1289421724998974e+00
      - -1.4292980225665339e+00
      - 2.0594737664371352e+00
      - -1.2754156341529732e+00
      - 2.0198411005307135e+00
      - -1.1511279078933536e+00
      - 2.0082923938514989e+00
      - -1.0953031209658135e+00
      - 2.0039691650036224e+00
      - -1.0650171421145114e+00
      - 2.0047682516449195e+00
      - -1.0714777992003959e+00
      - 2.0102234508117562e+00
      - -1.1063519375173776e+00
      - 2.0215466353129901e+00
      - -1.1579558563162065e+00
      - 2.0374752919251145e+00
      - -1.2132277261757456e+00
      - 2.0628050670858764e+00
      - -1.2839717046600632e+00
      - 2.0952414922024616e+00
      - -1.3598854217558742e+00
      - 2.1497771041007590e+00
      - -1.4690780995132233e+00
      - 2.2189588016031490e+00
      - -1.5900462960440793e+00
      - 2.2721618913347945e+00
      - -1.6752283421264060e+00
      - 2.3101392413356439e+00
      - -1.7331577009719448e+00
      - 2.3527374898430029e+00
      - -1.7959197307396091e+00
      - 2.3668144061500653e+00
      - -1.8162204522172039e+00
      - 2.3168110350573028e+00
      - -1.7431305324209705e+00
      - 2.2217783532941366e+00
      - -1.5947019118986334e+00
      - 2.1164124178971995e+00
      - -1.4043281248357151e+00
      - 2.0406771045389824e+00
      - -1.2230471146130719e+00
      - 2.0060200539330397e+00
      - -1.0806573977872935e+00
      - 2.0019166394852164e+00
      - -9.5716839096959772e-01
      - 2.0172546872481654e+00
      - -8.7698723459126016e-01
      - 2.0207182610585965e+00
      - -8.6604844955273541e-01
      - 2.0054839399066799e+00
      - -9.2863759554868641e-01
      - 2.0015516939175915e+00
      - -1.0401750329414354e+00
      - 2.0911068095187044e+00
      - -1.3508105458779076e+00
      - 2.4004107690856613e+00
      - -1.8639018250075994e+00
      - 2.9807409122643311e+00
      - -2.5954514923062550e+00
      - 2.4991880535113453e+00
      - -1.9989172091699474e+00
      - 2.2295565471576828e+00
      - -1.6074552460906710e+00
      - 2.1149681924316899e+00
      - -1.4013919526969707e+00
      - 2.0496571525496563e+00
      - -1.2490463515503207e+00
      - 2.0151850275741729e+00
      - -1.1310537378203018e+00
      - 2.0052885861814178e+00
      - -1.0754150184366018e+00
      - 2.0026862428925245e+00
      - -1.0531894990221715e+00
      - 2.0056207565371555e+00
      - -1.0778347393999343e+00
      - 2.0142622326260913e+00
      - -1.1267684242314422e+00
      - 2.0302010399156405e+00
      - -1.1895398091636553e+00
      - 2.0534740521109827e+00
      - -1.2595221644842032e+00
      - 2.0839444800650542e+00
      - -1.3347283654994462e+00
      - 2.1287913651580461e+00
      - -1.4290025518133593e+00
      - 2.1914190100422299e+00
      - -1.5435703309409721e+00
      - 2.2541010485181157e+00
      - -1.6468994294542283e+00
      - 2.3084540837438032e+00
      - -1.7306297346036068e+00
      - 2.3466801914741802e+00
      - -1.7871209851954730e+00
      - 2.3714479896293166e+00
      - -1.8228592958922487e+00
      - 2.3659259052455943e+00
      - -1.8149450309114510e+00
      - 2.3056618265769004e+00
      - -1.7264327914526365e+00
      - 2.2085110307892464e+00
      - -1.5726359625521071e+00
      - 2.1143376866618686e+00
      - -1.4001061018924175e+00
      - 2.0509773671855882e+00
      - -1.2527045284999698e+00
      - 2.0124130299352108e+00
      - -1.1177930319096359e+00
      - 2.0000101971469357e+00
      - -1.0031983998325411e+00
      - 2.0034558978294488e+00
      - -9.4291567437190016e-01
      - 2.0041738414672281e+00
      - -9.3744794870143799e-01
      - 2.0001596948193741e+00
      - -9.8744255359405442e-01
      - 2.0101117864307572e+00
      - -1.1057402936305498e+00
      - 2.1006470559088561e+00
      - -1.3715392084163818e+00
      - 2.3853982715939903e+00
      - -1.8427231572999696e+00
      - 2.9101748187866754e+00
      - -2.5121017749414198e+00
      - 2.3901479164442048e+00
      - -1.8494452332798050e+00
      - 2.2089803827299397e+00
      - -1.5734236438093736e+00
      - 2.1032537729990266e+00
      - -1.3770790464380516e+00
      - 2.0414707142809716e+00
      - -1.2254318869516063e+00
      - 2.0100561893768893e+00
      - -1.1054346239237758e+00
      - 2.0048573440266821e+00
      - -1.0721656240146340e+00
      - 2.0038204796808055e+00
      - -1.0637497797566504e+00
      - 2.0072621534810473e+00
      - -1.0889266698233024e+00
      - 2.0180458855363419e+00
      - -1.1436606010682895e+00
      - 2.0376043229510499e+00
      - -1.2136298910912084e+00
      - 2.0623647038750885e+00
      - -1.2828508699278669e+00
      - 2.0891707108603796e+00
      - -1.3465101221837905e+00
      - 2.1307987029710804e+00
      - -1.4329259194310562e+00
      - 2.1827768616862073e+00
      - -1.5285711237509680e+00
      - 2.2420904151105523e+00
      - -1.6277427084200942e+00
      - 2.2809029628524393e+00
      - -1.6887484643535919e+00
      - 2.3128225535467211e+00
      - -1.7371754638997656e+00
      - 2.3168110350573028e+00
      - -1.7431305324209705e+00
      - 2.2886628880678339e+00
      - -1.7006537011877627e+00
      - 2.2394864646869053e+00
      - -1.6235536196708316e+00
      - 2.1699833544361864e+00
      - -1.5059512235316685e+00
      - 2.1028274143070123e+00
      - -1.3761763644746317e+00
      - 2.0483349525468193e+00
      - -1.2453439204446755e+00
      - 2.0146412296604397e+00
      - -1.1285428118979686e+00
      - 2.0016245368909291e+00
      - -1.0411259965161430e+00
      - 2.0000002518052193e+00
      - -9.9949832391433691e-01
      - 2.0001342735413119e+00
      - -9.8847929621868547e-01
      - 2.0021178233561554e+00
      - -1.0470909076167441e+00
      - 2.0264929177879987e+00
      - -1.1765510407685718e+00
      - 2.1115614458958039e+00
      - -1.3944146476341250e+00
      - 2.4186492570001366e+00
      - -1.8893731981602271e+00
      - 2.8466344253290572e+00
      - -2.4361508060386439e+00
      - 2.3532854071417804e+00
      - -1.7967137090747869e+00
      - 2.1867979319302480e+00
      - -1.5355768699512935e+00
      - 2.0963396674901063e+00
      - -1.3622717286344856e+00
      - 2.0317131125140402e+00
      - -1.1946428613543962e+00
      - 2.0083933364871704e+00
      - -1.0959078917198708e+00
      - 2.0049860651767388e+00
      - -1.0731491037233098e+00
      - 2.0057662514506220e+00
      - -1.0788736768785312e+00
      - 2.0076755825731176e+00
      - -1.0915322108072816e+00
      - 2.0193839752852467e+00
      - -1.1492552704562335e+00
      - 2.0372730139145112e+00
      - -1.2125961246772312e+00
      - 2.0580104558127608e+00
      - -1.2715990428701216e+00
      - 2.0843219717273298e+00
      - -1.3355881837447168e+00
      - 2.1172275237764007e+00
      - -1.4059797027331356e+00
      - 2.1626769886930837e+00
      - -1.4927907265140756e+00
      - 2.2146185498630713e+00
      - -1.5828445841877501e+00
      - 2.2465360202035138e+00
      - -1.6348645528167765e+00
      - 2.2476568910990293e+00
      - -1.6366543175823505e+00
      - 2.2352496517828349e+00
      - -1.6167092390409581e+00
      - 2.2067447065090264e+00
      - -1.5696668416697230e+00
      - 2.1642623506306582e+00
      - -1.4956621664022554e+00
      - 2.1269157311412963e+00
      - -1.4253178272189062e+00
      - 2.0794079605461335e+00
      - -1.3242815032710322e+00
      - 2.0384022171997516e+00
      - -1.2161043837661762e+00
      - 2.0158792033311475e+00
      - -1.1342021875956712e+00
      - 2.0047682516449195e+00
      - -1.0714777992003959e+00
      - 2.0013198821607712e+00
      - -1.0369961170349491e+00
      - 2.0006161376220191e+00
      - -1.0251321000793454e+00
      - 2.0089073887400359e+00
      - -1.0989376831383670e+00
      - 2.0477442968985859e+00
      - -1.2436770082003250e+00
      - 2.1496524794200220e+00
      - -1.4688458401985676e+00
      - 2.4641141294883395e+00
      - -1.9517546476121543e+00
      - 2.7559769946851480e+00
      - -2.3260667107872481e+00
      - 2.3386634607372714e+00
      - -1.7754148068910771e+00
      - 2.1776950644410067e+00
      - -1.5196478901853965e+00
      - 2.0885707634988755e+00
      - -1.3451706730741697e+00
      - 2.0251202396248389e+00
      - -1.1715506737284975e+00
      - 2.0079030210552089e+00
      - -1.0929382257757745e+00
      - 2.0056967333340805e+00
      - -1.0783788011074071e+00
      - 2.0068223269895271e+00
      - -1.0860789506062796e+00
      - 2.0101954759202760e+00
      - -1.1061989884597552e+00
      - 2.0210286024798463e+00
      - -1.1559073994612963e+00
      - 2.0333511916863474e+00
      - -1.2000584390512350e+00
      - 2.0519416214542918e+00
      - -1.2553528162640166e+00
      - 2.0718543344284353e+00
      - -1.3063806674179934e+00
      - 2.0993268040637951e+00
      - -1.3687139584726864e+00
      - 2.1334803769615203e+00
      - -1.4381357050395467e+00
      - 2.1716163066952663e+00
      - -1.5088676596540120e+00
      - 2.1860273438765963e+00
      - -1.5342379766224823e+00
      - 2.1804119397078496e+00
      - -1.5244283284504585e+00
      - 2.1639091562746695e+00
      - -1.4950232275799402e+00
      - 2.1378440022694254e+00
      - -1.4465385321682975e+00
      - 2.1144426211386405e+00
      - -1.4003202751872730e+00
      - 2.0901961703497554e+00
      - -1.3487920226122194e+00
      - 2.0611989959444785e+00
      - -1.2798690813967550e+00
      - 2.0337154260072197e+00
      - -1.2012475405292404e+00
      - 2.0200255084719605e+00
      - -1.1518780555585744e+00
      - 2.0104015357652414e+00
      - -1.1073212053660657e+00
      - 2.0052619221902663e+00
      - -1.0752177653129140e+00
      - 2.0047936215577953e+00
      - -1.0716742693040575e+00
      - 2.0267382639840714e+00
      - -1.1774331368020232e+00
      - 2.0879732270220370e+00
      - -1.3438333229980572e+00
      - 2.2158980224881062e+00
      - -1.5849720835546857e+00
      - 2.5344990571091364e+00
      - -2.0456590400726222e+00
      - 2.6303693509616295e+00
      - -2.1694157511386698e+00
      - 2.3253504887683389e+00
      - -1.7558141184295217e+00
      - 2.1742235434966868e+00
      - -1.5135059605851782e+00
      - 2.0798296138530028e+00
      - -1.3252616233884742e+00
      - 2.0220712778754382e+00
      - -1.1600090030072794e+00
      - 2.0081089474989606e+00
      - -1.0941953981753265e+00
      - 2.0060843701429811e+00
      - -1.0811038596179057e+00
      - 2.0083091744255523e+00
      - -1.0954038886920814e+00
      - 2.0101675402295069e+00
      - -1.1060460647998813e+00
      - 2.0190351318544999e+00
      - -1.1478133211610226e+00
      - 2.0279357754932046e+00
      - -1.1816905081092308e+00
      - 2.0399680872082993e+00
      - -1.2209005665858894e+00
      - 2.0531164910299218e+00
      - -1.2585535718358913e+00
      - 2.0713786049321792e+00
      - -1.3052302664079281e+00
      - 2.0938096942917106e+00
      - -1.3567592629244378e+00
      - 2.1124936949027000e+00
      - -1.3963312527846665e+00
      - 2.1262447761754184e+00
      - -1.4239952355746233e+00
      - 2.1166247118435191e+00
      - -1.4047586615690635e+00
      - 2.1057679612930391e+00
      - -1.3823755233332184e+00
      - 2.0844965364461436e+00
      - -1.3359853149400163e+00
      - 2.0723318920293461e+00
      - -1.3075326125020705e+00
      - 2.0573330517030817e+00
      - -1.2698196336637331e+00
      - 2.0430632243876907e+00
      - -1.2301624697182214e+00
      - 2.0320676661980857e+00
      - -1.1958246838171300e+00
      - 2.0212050813411939e+00
      - -1.1566076611625353e+00
      - 2.0143620561616959e+00
      - -1.1272377785199363e+00
      - 2.0087515376133864e+00
      - -1.0980277040031206e+00
      - 2.0126825135871833e+00
      - -1.1191363148631075e+00
      - 2.0498722637493065e+00
      - -1.2496449977927035e+00
      - 2.1293196827123140e+00
      - -1.4300371501706439e+00
      - 2.2644385183135554e+00
      - -1.6631810758682266e+00
      - 2.5607782484547474e+00
      - -2.0800117286100543e+00
      - 2.5703069956306153e+00
      - -2.0923830270985966e+00
      - 2.3238171980979518e+00
      - -1.7535432773293769e+00
      - 2.1696219113039001e+00
      - -1.5053044865207343e+00
      - 2.0774575074891475e+00
      - -1.3197223904265372e+00
      - 2.0238438962510688e+00
      - -1.1667961845180879e+00
      - 2.0092942674807808e+00
      - -1.1011658538561362e+00
      - 2.0085885493297466e+00
      - -1.0970681401909155e+00
      - 2.0081172406429850e+00
      - -1.0942457205182454e+00
      - 2.0110226831292111e+00
      - -1.1106448662608364e+00
      - 2.0163628003158727e+00
      - -1.1363599304366723e+00
      - 2.0199331931379918e+00
      - -1.1515029035194067e+00
      - 2.0288722186302492e+00
      - -1.1849665168159791e+00
      - 2.0342569931285599e+00
      - -1.2030058177283010e+00
      - 2.0477863534862832e+00
      - -1.2437959674966068e+00
      - 2.0577997473375049e+00
      - -1.2710464202796323e+00
      - 2.0693640948520984e+00
      - -1.3003264323954304e+00
      - 2.0736949301379681e+00
      - -1.3108048811393986e+00
      - 2.0670768847782530e+00
      - -1.2946930171071307e+00
      - 2.0596878944657773e+00
      - -1.2759710600266985e+00
      - 2.0506726654884058e+00
      - -1.2518635833021234e+00
      - 2.0438617744479437e+00
      - -1.2325080423533308e+00
      - 2.0375858752429914e+00
      - -1.2135724276799642e+00
      - 2.0347855129633365e+00
      - -1.2047107239630794e+00
      - 2.0254186187829237e+00
      - -1.1726472515069328e+00
      - 2.0202240774584284e+00
      - -1.1526824802158337e+00
      - 2.0157623922390635e+00
      - -1.1336766868627934e+00
      - 2.0153455664994979e+00
      - -1.1317874000452566e+00
      - 2.0332993316297308e+00
      - -1.1998886982328452e+00
      - 2.0840024905584689e+00
      - -1.3348605889298599e+00
      - 2.1843493579884297e+00
      - -1.5313164891604942e+00
      - 2.3237443316993054e+00
      - -1.7534352899337717e+00
      - 2.6230002668925945e+00
      - -2.1600474804044119e+00
      - 2.5445126502727451e+00
      - -2.0587905944784701e+00
      - 2.3131060925687232e+00
      - -1.7375994720281542e+00
      - 2.1585426222038517e+00
      - -1.4852596889745813e+00
      - 2.0741255927128921e+00
      - -1.3118340531986632e+00
      - 2.0251499938274913e+00
      - -1.1716602708232817e+00
      - 2.0090295763529369e+00
      - -1.0996460641335120e+00
      - 2.0082087501018946e+00
      - -1.0947994465623234e+00
      - 2.0068299230163325e+00
      - -1.0861288356674315e+00
      - 2.0075951731082924e+00
      - -1.0910305778586327e+00
      - 2.0107337077380674e+00
      - -1.1091093758092625e+00
      - 2.0114635248379602e+00
      - -1.1129529260872961e+00
      - 2.0128603237508012e+00
      - -1.1200156835431958e+00
      - 2.0165894561809257e+00
      - -1.1373616049218958e+00
      - 2.0206645350203423e+00
      - -1.1544547528212565e+00
      - 2.0220851736540970e+00
      - -1.1600630967507835e+00
      - 2.0250607869996879e+00
      - -1.1713315199471988e+00
      - 2.0238728437858211e+00
      - -1.1669051992431454e+00
      - 2.0211099583172030e+00
      - -1.1562305292768069e+00
      - 2.0176850897004091e+00
      - -1.1421215015531920e+00
      - 2.0177594263365259e+00
      - -1.1424397208145520e+00
      - 2.0183978376793443e+00
      - -1.1451491221759047e+00
      - 2.0207048227082614e+00
      - -1.1546160420068579e+00
      - 2.0213959993591351e+00
      - -1.1573624008008989e+00
      - 2.0181586272935719e+00
      - -1.1441387865832247e+00
      - 2.0176850897004091e+00
      - -1.1421215015531920e+00
      - 2.0174139080030926e+00
      - -1.1409556555115341e+00
      - 2.0214096706594500e+00
      - -1.1574163350796993e+00
      - 2.0541480944107362e+00
      - -1.2613411990701024e+00
      - 2.1168726934266306e+00
      - -1.4052612305435122e+00
      - 2.2311245686989798e+00
      - -1.6100106742377087e+00
      - 2.3784507938957180e+00
      - -1.8328534298564580e+00
      - 2.6912636709307849e+00
      - -2.2460345434899525e+00
      - 2.5283748796795131e+00
      - -2.0376018714665514e+00
      - 2.2872035417440624e+00
      - -1.6984215707545207e+00
      - 2.1560959440179688e+00
      - -1.4807729773819862e+00
      - 2.0691566990224395e+00
      - -1.2998185449518045e+00
      - 2.0242508455791066e+00
      - -1.1683236028587591e+00
      - 2.0077159488198615e+00
      - -1.0917831288676230e+00
      - 2.0058151682428926e+00
      - -1.0792202455107340e+00
      - 2.0042691377600694e+00
      - -1.0675080661428626e+00
      - 2.0041030817069023e+00
      - -1.0661396873922286e+00
      - 2.0040504125147063e+00
      - -1.0657002718253696e+00
      - 2.0045925666973932e+00
      - -1.0701036547371423e+00
      - 2.0051757350524819e+00
      - -1.0745769785835060e+00
      - 2.0060843701429811e+00
      - -1.0811038596179057e+00
      - 2.0045615449707910e+00
      - -1.0698584825229582e+00
      - 2.0044080290547868e+00
      - -1.0686335767329636e+00
      - 2.0050706467917441e+00
      - -1.0737889173856887e+00
      - 2.0049343724798918e+00
      - -1.0727555884684390e+00
      - 2.0026155716301535e+00
      - -1.0524671635858391e+00
      - 2.0022071328373636e+00
      - -1.0480966584238287e+00
      - 2.0042452118853613e+00
      - -1.0673124620657708e+00
      - 2.0075951731082924e+00
      - -1.0910305778586327e+00
      - 2.0119536404175440e+00
      - -1.1154727689801842e+00
      - 2.0143287417313096e+00
      - -1.1270813002009661e+00
      - 2.0146187936668198e+00
      - -1.1284383403146774e+00
      - 2.0192802698648658e+00
      - -1.1488277854851363e+00
      - 2.0218495691665193e+00
      - -1.1591439469230524e+00
      - 2.0319830572201174e+00
      - -1.1955431540758390e+00
      - 2.0670259920088925e+00
      - -1.2945668465986993e+00
      - 2.1280765632354135e+00
      - -1.4276004698991094e+00
      - 2.2643143399243510e+00
      - -1.6629865752297839e+00
      - 2.4234832311733800e+00
      - -1.8960790637397498e+00
      - 2.7545003746687748e+00
      - -2.3242549806235266e+00
      - 2.5069310956326443e+00
      - -2.0092273353939114e+00
      - 2.2506844477634758e+00
      - -1.6414770133031600e+00
      - 2.1463951394320504e+00
      - -1.4627524742473155e+00
      - 2.0591178523375997e+00
      - -1.2744907176003173e+00
      - 2.0198411005307135e+00
      - -1.1511279078933536e+00
      - 2.0052486157630849e+00
      - -1.0751191542841814e+00
      - 2.0030084607524596e+00
      - -1.0563742901673823e+00
      - 2.0038545375700880e+00
      - -1.0640420974095994e+00
      - 2.0027916086756319e+00
      - -1.0542499143519053e+00
      - 2.0040679307630529e+00
      - -1.0658467209890539e+00
      - 2.0046050051274986e+00
      - -1.0702017414810965e+00
      - 2.0050771828701346e+00
      - -1.0738381518587372e+00
      - 2.0051033697630056e+00
      - -1.0740351155402224e+00
      - 2.0026673045586403e+00
      - -1.0529968227883257e+00
      - 2.0012705595887161e+00
      - -1.0362858501843673e+00
      - 2.0016690476116228e+00
      - -1.0416970254620408e+00
      - 2.0013871110188686e+00
      - -1.0379439519920628e+00
      - 2.0003247724954316e+00
      - -1.0181845632728446e+00
      - 2.0004122242644358e+00
      - -1.0205104650312113e+00
      - 2.0032857607986618e+00
      - -1.0589879748248208e+00
      - 2.0059702696600894e+00
      - -1.0803102969058065e+00
      - 2.0084609772435060e+00
      - -1.0963112916019877e+00
      - 2.0098719974168540e+00
      - -1.1044164565888743e+00
      - 2.0104769896688763e+00
      - -1.1077296237042420e+00
      - 2.0149118478918173e+00
      - -1.1297974078902546e+00
      - 2.0189067684808575e+00
      - -1.1472798510545157e+00
      - 2.0367607962726813e+00
      - -1.2109904583832849e+00
      - 2.0723584766790637e+00
      - -1.3075966548144002e+00
      - 2.1396228015743923e+00
      - -1.4499382654708999e+00
      - 2.2695054191755184e+00
      - -1.6710956147489642e+00
      - 2.4465860249090277e+00
      - -1.9278821085382096e+00
      - 2.7822699772544990e+00
      - -2.3582216220696406e+00
      - 2.4797028993090970e+00
      - -1.9728123061881599e+00
      - 2.2371893457591447e+00
      - -1.6198471463842501e+00
      - 2.1346791372137321e+00
      - -1.4404531635265512e+00
      - 2.0477442968985859e+00
      - -1.2436770082003250e+00
      - 2.0132944020103323e+00
      - -1.1221400029087285e+00
      - 2.0034343940512658e+00
      - -1.0603460535460418e+00
      - 2.0023246833074184e+00
      - -1.0493913199296236e+00
      - 2.0043715800988946e+00
      - -1.0683398358594718e+00
      - 2.0051691350939156e+00
      - -1.0745277053942897e+00
      - 2.0071528328574879e+00
      - -1.0882264229967267e+00
      - 2.0106097056587218e+00
      - -1.1084447923400234e+00
      - 2.0127764897851521e+00
      - -1.1196017575929589e+00
      - 2.0110517969780157e+00
      - -1.1107985565352771e+00
      - 2.0083849008389993e+00
      - -1.0958574790810307e+00
      - 2.0074356457565083e+00
      - -1.0900281233264779e+00
      - 2.0090909886233157e+00
      - -1.1000004582572434e+00
      - 2.0068984803771182e+00
      - -1.0865779213701852e+00
      - 2.0041324907408997e+00
      - -1.0663838954428106e+00
      - 2.0046050051274986e+00
      - -1.0702017414810965e+00
      - 2.0100932366652740e+00
      - -1.1056383924588997e+00
      - 2.0140966581657720e+00
      - -1.1259867043392882e+00
      - 2.0158909089986570e+00
      - -1.1342547544176560e+00
      - 2.0170476210613555e+00
      - -1.1393682846490687e+00
      - 2.0146973973778595e+00
      - -1.1288040433645761e+00
      - 2.0157274359610238e+00
      - -1.1335190959851988e+00
      - 2.0174507591358615e+00
      - -1.1411145459844689e+00
      - 2.0315785992841868e+00
      - -1.1941930587599283e+00
      - 2.0654843749392131e+00
      - -1.2907275083301315e+00
      - 2.1420576986425299e+00
      - -1.4545686726492122e+00
      - 2.2747745524975636e+00
      - -1.6792819303768907e+00
      - 2.4474525766407180e+00
      - -1.9290673609414866e+00
      - 2.8241541839381026e+00
      - -2.4090533773759670e+00
      - 2.4582677916066360e+00
      - -1.9438157367735789e+00
      - 2.2219418186831374e+00
      - -1.5949712826918712e+00
      - 2.1180818621450515e+00
      - -1.4077065211254622e+00
      - 2.0382158498892964e+00
      - -1.2155282973223289e+00
      - 2.0080510163185412e+00
      - -1.0938432181862006e+00
      - 2.0020221343192883e+00
      - -1.0459905800081570e+00
      - 2.0032074981828112e+00
      - -1.0582612304505290e+00
      - 2.0077970044384688e+00
      - -1.0922851683970147e+00
      - 2.0126304587255062e+00
      - -1.1188778379297650e+00
      - 2.0222662363895272e+00
      - -1.1607666128083221e+00
      - 2.0301682503085927e+00
      - -1.1894279840661126e+00
      - 2.0331612499344685e+00
      - -1.1994362156905500e+00
      - 2.0335070319063524e+00
      - -1.2005678576220069e+00
      - 2.0311435426477429e+00
      - -1.1927327791949760e+00
      - 2.0347501427722503e+00
      - -1.2045969608059339e+00
      - 2.0344678784911925e+00
      - -1.2036873842475948e+00
      - 2.0301518626305812e+00
      - -1.1893720768137055e+00
      - 2.0234549135147941e+00
      - -1.1653257860347392e+00
      - 2.0229273264856187e+00
      - -1.1633147154636061e+00
      - 2.0320676661980857e+00
      - -1.1958246838171300e+00
      - 2.0401590442232900e+00
      - -1.2214801959722901e+00
      - 2.0395307645082403e+00
      - -1.2195688728239595e+00
      - 2.0387389182011577e+00
      - -1.2171422938049610e+00
      - 2.0363972718369805e+00
      - -1.2098453478294291e+00
      - 2.0303488283551241e+00
      - -1.1900431969855760e+00
      - 2.0296624395033889e+00
      - -1.1876964984594554e+00
      - 2.0388702883759744e+00
      - -1.2175462574693534e+00
      - 2.0673316808282913e+00
      - -1.2953241474465846e+00
      - 2.1427814220646177e+00
      - -1.4559398700306303e+00
      - 2.2717177509684254e+00
      - -1.6745381724840702e+00
      - 2.4772416723633377e+00
      - -1.9694981007229710e+00
      - 2.8721667225563912e+00
      - -2.4667799318265216e+00
      - 2.4067346577008117e+00
      - -1.8727647654637836e+00
      - 2.1933883332525084e+00
      - -1.5469586390333654e+00
      - 2.0986227340699615e+00
      - -1.3672018277110132e+00
      - 2.0295164448371894e+00
      - -1.1871944424135430e+00
      - 2.0053891835241706e+00
      - -1.0761550869206051e+00
      - 2.0010204874098814e+00
      - -1.0324593870192722e+00
      - 2.0031148370682308e+00
      - -1.0573898698569879e+00
      - 2.0091702593424352e+00
      - -1.1004563075952261e+00
      - 2.0179459772092900e+00
      - -1.1432357598176257e+00
      - 2.0343447774063845e+00
      - -1.2032897396948672e+00
      - 2.0416070449641683e+00
      - -1.2258396937100673e+00
      - 2.0494639932782368e+00
      - -1.2485079223683944e+00
      - 2.0543964268403871e+00
      - -1.2620091366193447e+00
      - 2.0584331696602400e+00
      - -1.2727053494361600e+00
      - 2.0642360221076004e+00
      - -1.2875932324386785e+00
      - 2.0621695518861731e+00
      - -1.2823531885651371e+00
      - 2.0556247519286490e+00
      - -1.2652955968146189e+00
      - 2.0508031276034266e+00
      - -1.2522238886443076e+00
      - 2.0501742864264254e+00
      - -1.2504837962074959e+00
      - 2.0559457184886112e+00
      - -1.2661496829340018e+00
      - 2.0605007527584545e+00
      - -1.2780725667285573e+00
      - 2.0673827065107484e+00
      - -1.2954504291150788e+00
      - 2.0655345945799786e+00
      - -1.2908531170315414e+00
      - 2.0586451757784956e+00
      - -1.2732590344055856e+00
      - 2.0459963511763641e+00
      - -1.2386953412087549e+00
      - 2.0423907681565452e+00
      - -1.2281736739126672e+00
      - 2.0461406412696688e+00
      - -1.2391093934060879e+00
      - 2.0741525574939392e+00
      - -1.3118984174833934e+00
      - 2.1482448237410394e+00
      - -1.4662180069523088e+00
      - 2.2559133152170605e+00
      - -1.6497671801580538e+00
      - 2.4519057449840287e+00
      - -1.9351499153309009e+00
      - 2.8543510699251042e+00
      - -2.4454240348856540e+00
      - 2.3541478659734318e+00
      - -1.7979628471386888e+00
      - 2.1650589061893752e+00
      - -1.4971015419013070e+00
      - 2.0773192737831838e+00
      - -1.3193976665701048e+00
      - 2.0203570256266898e+00
      - -1.1532191635032141e+00
      - 2.0018178784255967e+00
      - -1.0435552121576801e+00
      - 2.0005457540069433e+00
      - -1.0236358491774500e+00
      - 2.0030893405812815e+00
      - -1.0571479668438870e+00
      - 2.0098170791473424e+00
      - -1.1041112255659811e+00
      - 2.0175122676255377e+00
      - -1.1413794255261214e+00
      - 2.0363972718369805e+00
      - -1.2098453478294291e+00
      - 2.0426274445473274e+00
      - -1.2288750850184824e+00
      - 2.0506943962285913e+00
      - -1.2519236238095488e+00
      - 2.0601413719668629e+00
      - -1.2771448006178407e+00
      - 2.0703802749017792e+00
      - -1.3028066927601452e+00
      - 2.0814153818550518e+00
      - -1.3289306913208023e+00
      - 2.0882418204493192e+00
      - -1.3444348712194354e+00
      - 2.0833945604724251e+00
      - -1.3334732622010108e+00
      - 2.0731854080241208e+00
      - -1.3095843412668218e+00
      - 2.0757535794440178e+00
      - -1.3157044892835594e+00
      - 2.0821578715890041e+00
      - -1.3306395521687129e+00
      - 2.0848463066770115e+00
      - -1.3367801315404741e+00
      - 2.0836837257611660e+00
      - -1.3341336131071049e+00
      - 2.0839444800650542e+00
      - -1.3347283654994462e+00
      - 2.0726246342271604e+00
      - -1.3082373409736829e+00
      - 2.0594975369637232e+00
      - -1.2754773304967615e+00
      - 2.0506292195391000e+00
      - -1.2517435147416951e+00
      - 2.0524939793782213e+00
      - -1.2568611346281444e+00
      - 2.0825306057141137e+00
      - -1.3314952650146508e+00
      - 2.1595370600091104e+00
      - -1.4870768633199909e+00
      - 2.2691275585477411e+00
      - -1.6705068445711164e+00
      - 2.4404679750391192e+00
      - -1.9194985900112664e+00
      - 2.7863804166264177e+00
      - -2.3632309067067361e+00
      - 2.3215645490552803e+00
      - -1.7502018948810532e+00
      - 2.1423790583225020e+00
      - -1.4551778198482230e+00
      - 2.0589521718897963e+00
      - -1.2740594286574125e+00
      - 2.0145068801389137e+00
      - -1.1279161622820564e+00
      - 2.0003101379375616e+00
      - -1.0177664852646593e+00
      - 2.0000637347273944e+00
      - -1.0080153342123193e+00
      - 2.0021857005619292e+00
      - -1.0478570982024877e+00
      - 2.0069443784387406e+00
      - -1.0868774320804484e+00
      - 2.0155880124455723e+00
      - -1.1328890060372199e+00
      - 2.0309770721039557e+00
      - -1.1921717747957505e+00
      - 2.0410244889226195e+00
      - -1.2240932875263755e+00
      - 2.0491216290814904e+00
      - -1.2475515378733439e+00
      - 2.0578231380599066e+00
      - -1.2711078053419171e+00
      - 2.0763008196081851e+00
      - -1.3169985286365589e+00
      - 2.0964971700801600e+00
      - -1.3626131759827143e+00
      - 2.1071397236773981e+00
      - -1.3852465926698136e+00
      - 2.1000017077288917e+00
      - -1.3701598661006558e+00
      - 2.0901961703497554e+00
      - -1.3487920226122194e+00
      - 2.0924523287917598e+00
      - -1.3537797159385583e+00
      - 2.0926982395742639e+00
      - -1.3543206776935495e+00
      - 2.0963396674901063e+00
      - -1.3622717286344856e+00
      - 2.0876753611096839e+00
      - -1.3431654329369294e+00
      - 2.0853725662068556e+00
      - -1.3379737446930489e+00
      - 2.0745847688273673e+00
      - -1.3129289036970060e+00
      - 2.0619990787986722e+00
      - -1.2819179529158480e+00
      - 2.0553048209732454e+00
      - -1.2644423527961859e+00
      - 2.0571005022522026e+00
      - -1.2692068926126108e+00
      - 2.0880627040207278e+00
      - -1.3440337919680887e+00
      - 2.1667936809204731e+00
      - -1.5002285977907248e+00
      - 2.2786975662813527e+00
      - -1.6853484623018826e+00
      - 2.4520030033713365e+00
      - -1.9352826040248703e+00
      - 2.7192355916372217e+00
      - -2.2807912597800182e+00
      - 2.3476063733895391e+00
      - -1.7884688853430639e+00
      - 2.1220839235190350e+00
      - -1.4157390784865711e+00
      - 2.0449729346918102e+00
      - -1.2357435326579564e+00
      - 2.0086655596222984e+00
      - -1.0975225464338341e+00
      - 2.0000425564323216e+00
      - -9.9349771438308243e-01
      - 2.0004196706877844e+00
      - -9.7972289514639166e-01
      - 2.0001987288690932e+00
      - -1.0141968373422732e+00
      - 2.0026815019904354e+00
      - -1.0531413263169904e+00
      - 2.0091790888775232e+00
      - -1.1005069714042435e+00
      - 2.0276533446288658e+00
      - -1.1806934500029724e+00
      - 2.0411793990838407e+00
      - -1.2245586550500247e+00
      - 2.0551224677273954e+00
      - -1.2639551621687308e+00
      - 2.0751270867576435e+00
      - -1.3142187557801361e+00
      - 2.0989743894340420e+00
      - -1.3679575573490919e+00
      - 2.1224120960794037e+00
      - -1.4163937116712559e+00
      - 2.1293952691359426e+00
      - -1.4301850530308144e+00
      - 2.1224120960794037e+00
      - -1.4163937116712559e+00
      - 2.1112861463741064e+00
      - -1.3938475941027355e+00
      - 2.1092007957882135e+00
      - -1.3895362115038314e+00
      - 2.1048042304053785e+00
      - -1.3803506051871595e+00
      - 2.1020431167893796e+00
      - -1.3745123870288294e+00
      - 2.0897730747518715e+00
      - -1.3478516772674300e+00
      - 2.0831636535276674e+00
      - -1.3329453485792540e+00
      - 2.0704326163765074e+00
      - -1.3029340788702122e+00
      - 2.0599263248634552e+00
      - -1.2765886192815126e+00
      - 2.0584567045099540e+00
      - -1.2727668524669455e+00
      - 2.0597593671543413e+00
      - -1.2761562814199483e+00
      - 2.0920535588326623e+00
      - -1.3529013845176689e+00
      - 2.1748680151810897e+00
      - -1.5146490832426489e+00
      - 2.2850253800751137e+00
      - -1.6950841758173194e+00
      - 2.4526843512325351e+00
      - -1.9362119747310351e+00
      - 2.7445773084645273e+00
      - -2.3120631753460241e+00
      - 2.3270366117541172e+00
      - -1.7583080570589533e+00
      - 2.0960879863093358e+00
      - -1.3617256974148648e+00
      - 2.0281407013103498e+00
      - -1.1824113025293677e+00
      - 2.0019407325148628e+00
      - -1.0450347977814687e+00
      - 2.0021516274795657e+00
      - -9.5467770111902561e-01
      - 2.0046236946393172e+00
      - -9.3427480389957507e-01
      - 2.0008396535958175e+00
      - -9.7144000881439196e-01
      - 2.0000807677594277e+00
      - -1.0090275630970991e+00
      - 2.0060772067914372e+00
      - -1.0810542422255940e+00
      - 2.0283622807162871e+00
      - -1.1831881977792602e+00
      - 2.0522947553469835e+00
      - -1.2563178377811766e+00
      - 2.0778730743534926e+00
      - -1.3206973014446062e+00
      - 2.1127361745669591e+00
      - -1.3968288571688763e+00
      - 2.1499849634858959e+00
      - -1.4694653398762572e+00
      - 2.1655913831969009e+00
      - -1.4980624850507642e+00
      - 2.1714343445769249e+00
      - -1.5085431154400799e+00
      - 2.1612764134606373e+00
      - -1.4902464755010052e+00
      - 2.1416165991395171e+00
      - -1.4537318094610654e+00
      - 2.1333647326747718e+00
      - -1.4379117706888258e+00
      - 2.1184389826757055e+00
      - -1.4084270669000380e+00
      - 2.1033194622799436e+00
      - -1.3772180056491570e+00
      - 2.0886905599201997e+00
      - -1.3454383947517530e+00
      - 2.0769054373055691e+00
      - -1.3184242330562315e+00
      - 2.0636663778340147e+00
      - -1.2861552873485840e+00
      - 2.0551224677273954e+00
      - -1.2639551621687308e+00
      - 2.0548722829736756e+00
      - -1.2632857224348679e+00
      - 2.0642856930996962e+00
      - -1.2877183846672959e+00
      - 2.1023041424043987e+00
      - -1.3750666846309143e+00
      - 2.1897073658116066e+00
      - -1.5406166097765799e+00
      - 2.2965902991189857e+00
      - -1.7127256151634132e+00
      - 2.4481276257418991e+00
      - -1.9299903090305475e+00
      - 2.7809053001012241e+00
      - -2.3565574953095361e+00
      - 2.3019932857001839e+00
      - -1.7209030139780011e+00
      - 2.0768228255147956e+00
      - -1.3182296790389521e+00
      - 2.0111588844495984e+00
      - -1.1113623076857904e+00
      - 2.0001396124912998e+00
      - -9.8825382705594034e-01
      - 2.0096804682569074e+00
      - -9.0633187852688224e-01
      - 2.0137467639250608e+00
      - -8.8942549009271654e-01
      - 2.0074197877012359e+00
      - -9.1749185041643544e-01
      - 2.0001690534574919e+00
      - -9.8708219608152670e-01
      - 2.0062793977715061e+00
      - -1.0824445252243786e+00
      - 2.0352114675456714e+00
      - -1.2060770297501047e+00
      - 2.0738562579526563e+00
      - -1.3111906759315195e+00
      - 2.1204874967367489e+00
      - -1.4125458998721945e+00
      - 2.1729394556492432e+00
      - -1.5112243269513497e+00
      - 2.2122870220954525e+00
      - -1.5789579218190046e+00
      - 2.2279963380139161e+00
      - -1.6049074483558570e+00
      - 2.2284969842630242e+00
      - -1.6057255538722901e+00
      - 2.2052981076350502e+00
      - -1.5672294407094853e+00
      - 2.1729394556492432e+00
      - -1.5112243269513497e+00
      - 2.1538012745264492e+00
      - -1.4765442066321555e+00
      - 2.1271772678281775e+00
      - -1.4258327259173089e+00
      - 2.1003240664426146e+00
      - -1.3708492578179694e+00
      - 2.0842928983589588e+00
      - -1.3355220131540502e+00
      - 2.0696498479486860e+00
      - -1.3010252682237533e+00
      - 2.0601892194008569e+00
      - -1.2772684451561216e+00
      - 2.0493782786688963e+00
      - -1.2482687275574611e+00
      - 2.0552592010110131e+00
      - -1.2643205294299309e+00
      - 2.0723318920293461e+00
      - -1.3075326125020705e+00
      - 2.1251315226509764e+00
      - -1.4217954888553999e+00
      - 2.2023244686924319e+00
      - -1.5622026516095513e+00
      - 2.3340771790271857e+00
      - -1.7686855536161936e+00
      - 2.4825894187392716e+00
      - -1.9766942983748572e+00
      - 2.8165774776805526e+00
      - -2.3998920728122513e+00
      - 2.3010301300252238e+00
      - -1.7194482024030919e+00
      - 2.0816719486168433e+00
      - -1.3295218337033035e+00
      - 2.0026673045586403e+00
      - -1.0529968227883257e+00
      - 2.0032805137274758e+00
      - -9.4434100582103331e-01
      - 2.0198542429845183e+00
      - -8.6867277385778696e-01
      - 2.0316962816282427e+00
      - -8.3710965812081051e-01
      - 2.0162560009949662e+00
      - -8.8037016164971116e-01
      - 2.0006436332394251e+00
      - -9.7494984772958160e-01
      - 2.0065889777860928e+00
      - -1.0845338355371392e+00
      - 2.0405040158911523e+00
      - -1.2225244967248963e+00
      - 2.1009059021489649e+00
      - -1.3720915719226157e+00
      - 2.1659470091240172e+00
      - -1.4987037194650377e+00
      - 2.2358759120163207e+00
      - -1.6177231833645751e+00
      - 2.2752225473960146e+00
      - -1.6799759204485147e+00
      - 2.2836460260278031e+00
      - -1.6929670895022046e+00
      - 2.2805777908021923e+00
      - -1.6882476210137574e+00
      - 2.2466538273586529e+00
      - -1.6350527729011575e+00
      - 2.2049890610240230e+00
      - -1.5667080479895841e+00
      - 2.1626330979303408e+00
      - -1.4927111029713525e+00
      - 2.1244296878716198e+00
      - -1.4204052607221567e+00
      - 2.0908634375514317e+00
      - -1.3502718057432070e+00
      - 2.0726779336336967e+00
      - -1.3083655356350659e+00
      - 2.0595926727546270e+00
      - -1.2757241599681732e+00
      - 2.0487805817723732e+00
      - -1.2465962045381103e+00
      - 2.0449322613142704e+00
      - -1.2356256679548454e+00
      - 2.0554418075182732e+00
      - -1.2648079258069427e+00
      - 2.0828755508920032e+00
      - -1.3322859147316375e+00
      - 2.1400996424373449e+00
      - -1.4508471687542257e+00
      - 2.2249542328562368e+00
      - -1.5999248926834024e+00
      - 2.3626303280193768e+00
      - -1.8102074574266429e+00
      - 2.5554218545378071e+00
      - -2.0730380383762523e+00
      - 2.8854748365057632e+00
      - -2.4826851371440717e+00
      - 2.3245465987085590e+00
      - -1.7546238901296096e+00
      - 2.0612231542997468e+00
      - -1.2799310969539779e+00
      - 2.0000651999173438e+00
      - -1.0081073123437221e+00
      - 2.0138447134663036e+00
      - -8.8905534485516868e-01
      - 2.0453399056230706e+00
      - -8.0853487305217453e-01
      - 2.0562446873451417e+00
      - -7.8930116881828805e-01
      - 2.0259301374900964e+00
      - -8.5141560109609571e-01
      - 2.0024770713894235e+00
      - -9.5145294179355600e-01
      - 2.0046862692282006e+00
      - -1.0708395542871043e+00
      - 2.0466164909926681e+00
      - -1.2404712379715381e+00
      - 2.1186535792068932e+00
      - -1.4088596881574236e+00
      - 2.1934377469308530e+00
      - -1.5470435201540951e+00
      - 2.2592612117552937e+00
      - -1.6550497773355406e+00
      - 2.2831219327209844e+00
      - -1.6921619470333396e+00
      - 2.2788916165027477e+00
      - -1.6856479228038777e+00
      - 2.2786329061995256e+00
      - -1.6852486652871590e+00
      - 2.2434294293180166e+00
      - -1.6298917518050604e+00
      - 2.1917626260270260e+00
      - -1.5441623099476023e+00
      - 2.1469689674278380e+00
      - -1.4638291221740098e+00
      - 2.1064357577494195e+00
      - -1.3837748336969351e+00
      - 2.0726512811002871e+00
      - -1.3083014359100713e+00
      - 2.0554418075182732e+00
      - -1.2648079258069427e+00
      - 2.0422530396084020e+00
      - -1.2277647772674296e+00
      - 2.0369615674217059e+00
      - -1.2116209058716128e+00
      - 2.0383462553749281e+00
      - -1.2159315181063932e+00
      - 2.0541030113521566e+00
      - -1.2612198111990489e+00
      - 2.0815863735889186e+00
      - -1.3293247408362425e+00
      - 2.1430635162901912e+00
      - -1.4564737131376884e+00
      - 2.2525982463155101e+00
      - -1.6445169488121101e+00
      - 2.3970215851319443e+00
      - -1.8591378582370017e+00
      - 2.6167742307511905e+00
      - -2.1521150594908005e+00
      - 3.0548738796253554e+00
      - -2.6820206765352759e+00
      - 2.3703868303655664e+00
      - -1.8213407498409022e+00
      - 2.0390772152127412e+00
      - -1.2181814338043913e+00
      - 2.0000212289707235e+00
      - -9.9540311154010286e-01
      - 2.0318985679200283e+00
      - -8.3663685388650955e-01
      - 2.0828467730579248e+00
      - -7.5062677374013975e-01
      - 2.0790715799128408e+00
      - -7.5557336532893782e-01
      - 2.0399299552357135e+00
      - -8.1914526850793157e-01
      - 2.0078214051547092e+00
      - -9.1538557196825709e-01
      - 2.0017752544752074e+00
      - -1.0430307447933862e+00
      - 2.0376412330749516e+00
      - -1.2137448291992237e+00
      - 2.1003563369924922e+00
      - -1.3709182277126306e+00
      - 2.1630723627920929e+00
      - -1.4935076751534930e+00
      - 2.2146185498630713e+00
      - -1.5828445841877501e+00
      - 2.2312930360438168e+00
      - -1.6102849245113444e+00
      - 2.2271082821622805e+00
      - -1.6034549730042511e+00
      - 2.2172903098073053e+00
      - -1.5872828879454011e+00
      - 2.1855468458808365e+00
      - -1.5334022393890454e+00
      - 2.1365097730854075e+00
      - -1.4439788578598995e+00
      - 2.1033851770819232e+00
      - -1.3773569875654608e+00
      - 2.0719073060436179e+00
      - -1.3065085849843041e+00
      - 2.0446683771062508e+00
      - -1.2348599354276562e+00
      - 2.0308276561726304e+00
      - -1.1916671749166801e+00
      - 2.0283940103158447e+00
      - -1.1832992383522203e+00
      - 2.0230266563095811e+00
      - -1.1636948416010064e+00
      - 2.0315450187723605e+00
      - -1.1940806438744800e+00
      - 2.0523389908582996e+00
      - -1.2564385410026175e+00
      - 2.0802525775463536e+00
      - -1.3262428674558215e+00
      - 2.1473386331390198e+00
      - -1.4645219759474895e+00
      - 2.2619634013149512e+00
      - -1.6592994149375060e+00
      - 2.4531716065925968e+00
      - -1.9368764007618890e+00
      - 2.6854887482288134e+00
      - -2.2388260970704605e+00
      - 3.3552820030976607e+00
      - -3.0246671074865596e+00
      - 2.3912577665038595e+00
      - -1.8510130655955812e+00
      - 2.0208124572326454e+00
      - -1.1550462881664354e+00
      - 2.0030336196680016e+00
      - -9.4641762308796706e-01
      - 2.0450339826809194e+00
      - -8.0911362309162971e-01
      - 2.1106682606478482e+00
      - -7.1809515477905439e-01
      - 2.1139185472392046e+00
      - -7.1466859876783650e-01
      - 2.0650583957604098e+00
      - -7.7539782197454199e-01
      - 2.0186513990436401e+00
      - -8.7243754183383271e-01
      - 2.0003516231327128e+00
      - -9.8142337059405715e-01
      - 2.0154954202710784e+00
      - -1.1324691889730794e+00
      - 2.0528491988955464e+00
      - -1.2578278370040388e+00
      - 2.0933456213226047e+00
      - -1.3557423377545283e+00
      - 2.1243928183378840e+00
      - -1.4203321538962652e+00
      - 2.1257987250865322e+00
      - -1.4231146521894467e+00
      - 2.1165539203647885e+00
      - -1.4046151250630337e+00
      - 2.1096772472901710e+00
      - -1.3905237766284402e+00
      - 2.0880925417165637e+00
      - -1.3441006254227257e+00
      - 2.0638394417897468e+00
      - -1.2865926687549738e+00
      - 2.0470324622718787e+00
      - -1.2416571841885879e+00
      - 2.0317131125140402e+00
      - -1.1946428613543962e+00
      - 2.0189067684808575e+00
      - -1.1472798510545157e+00
      - 2.0141186771404844e+00
      - -1.1260908948968469e+00
      - 2.0115229735062230e+00
      - -1.1132611064539708e+00
      - 2.0138447134663036e+00
      - -1.1247893686111348e+00
      - 2.0240469174595717e+00
      - -1.1675595671400159e+00
      - 2.0453399056230706e+00
      - -1.2368050325708961e+00
      - 2.0788757440814183e+00
      - -1.3230416270097105e+00
      - 2.1421379943208092e+00
      - -1.4547209184095946e+00
      - 2.2801230425106391e+00
      - -1.6875469295056160e+00
      - 2.4819695053020023e+00
      - -1.9758610390504650e+00
      - 2.8227046961650406e+00
      - -2.4073018701156621e+00
      - 3.4057117303454771e+00
      - -3.0811584798235256e+00
      - 2.3022689238116625e+00
      - -1.7213191244382666e+00
      - 2.0145739749728517e+00
      - -1.1282294331350857e+00
      - 2.0117322861945981e+00
      - -8.9739173215427570e-01
      - 2.0579167542687307e+00
      - -7.8656336506731261e-01
      - 2.1120097064179548e+00
      - -7.1667278870443663e-01
      - 2.1474619902222467e+00
      - -6.8270893708584623e-01
      - 2.0967494974623526e+00
      - -7.3358972085158136e-01
      - 2.0422137335930284e+00
      - -8.1456574881030264e-01
      - 2.0097623174186792e+00
      - -9.0595622186819380e-01
      - 2.0000002996690323e+00
      - -1.0005475701984599e+00
      - 2.0064627612849675e+00
      - -1.0836875992077630e+00
      - 2.0207048227082614e+00
      - -1.1546160420068579e+00
      - 2.0321354395774907e+00
      - -1.1960499722379812e+00
      - 2.0340293194225798e+00
      - -1.2022680485269086e+00
      - 2.0318985679200283e+00
      - -1.1952617140335189e+00
      - 2.0299555808915981e+00
      - -1.1887014649931571e+00
      - 2.0229982533303037e+00
      - -1.1635862176504326e+00
      - 2.0162323170236345e+00
      - -1.1357805194455706e+00
      - 2.0099362666322365e+00
      - -1.1047726872246619e+00
      - 2.0079521975449111e+00
      - -1.0932397918753027e+00
      - 2.0046112307157657e+00
      - -1.0702507886812629e+00
      - 2.0032126861300616e+00
      - -1.0583096627924020e+00
      - 2.0054771438718699e+00
      - -1.0767969519352176e+00
      - 2.0107432769163949e+00
      - -1.1091605175162194e+00
      - 2.0203570256266898e+00
      - -1.1532191635032141e+00
      - 2.0411987852449265e+00
      - -1.2246168433989622e+00
      - 2.0816148927329130e+00
      - -1.3293904334115421e+00
      - 2.1586289306320454e+00
      - -1.4854175495697772e+00
      - 2.2962509395496760e+00
      - -1.7122106533647747e+00
      - 2.5354122356371671e+00
      - -2.0468587351886751e+00
      - 2.8813391096529841e+00
      - -2.4777465848507632e+00
      - 3.2937075006788628e+00
      - -2.9553365645204392e+00
      - 2.1740856532739752e+00
      - -1.5132612060423480e+00
      - 2.0035863410313759e+00
      - -1.0617060780721894e+00
      - 2.0098628334994317e+00
      - -9.0549725576572182e-01
      - 2.0593312559751640e+00
      - -7.8428570733582670e-01
      - 2.1210302485554835e+00
      - -7.0739711451070386e-01
      - 2.1273642890955431e+00
      - -7.0116358691279135e-01
      - 2.1260216255468594e+00
      - -7.0246679594160411e-01
      - 2.0912286415674672e+00
      - -7.4014859794722843e-01
      - 2.0489935821177885e+00
      - -8.0180041728964868e-01
      - 2.0210286024798458e+00
      - -8.6512120301855000e-01
      - 2.0069750630113741e+00
      - -9.1989790363609236e-01
      - 2.0012349882989411e+00
      - -9.6546966921013877e-01
      - 2.0000719993565994e+00
      - -9.9155067985072953e-01
      - 2.0000172332692618e+00
      - -9.9585731039341241e-01
      - 2.0000153915086831e+00
      - -1.0039309046332647e+00
      - 2.0001528507739486e+00
      - -1.0124399449015891e+00
      - 2.0000587377046384e+00
      - -1.0076934778786952e+00
      - 2.0000743407773531e+00
      - -1.0086593603071774e+00
      - 2.0002294194133907e+00
      - -1.0152617414854748e+00
      - 2.0008771104586938e+00
      - -1.0300578528135742e+00
      - 2.0011129519733051e+00
      - -1.0339220516422449e+00
      - 2.0016171771365849e+00
      - -1.0410308579231879e+00
      - 2.0028793342383944e+00
      - -1.0551184048074895e+00
      - 2.0093922989413775e+00
      - -1.1017237371003337e+00
      - 2.0225744183534298e+00
      - -1.1619584388273307e+00
      - 2.0504123002932344e+00
      - -1.2511434208622920e+00
      - 2.1089291121041160e+00
      - -1.3889724034488926e+00
      - 2.1963688350488080e+00
      - -1.5520665772238293e+00
      - 2.3643955357339137e+00
      - -1.8127463879983587e+00
      - 2.5492956463876446e+00
      - -2.0650446053056615e+00
      - 2.7455468185877390e+00
      - -2.3132556437163561e+00
      - 3.1181957170604235e+00
      - -2.7552525861777233e+00
      - 2.0511519385240695e+00
      - -1.2531854346358680e+00
      - 2.0001961642752089e+00
      - -1.0141042913076350e+00
      - 2.0160434891710586e+00
      - -8.8110508863661907e-01
      - 2.0509119884774054e+00
      - -7.9838773111043926e-01
      - 2.0795202734246727e+00
      - -7.5497751453173934e-01
      - 2.0821292408953327e+00
      - -7.5155547733152317e-01
      - 2.0881820909026985e+00
      - -7.4388093371010322e-01
      - 2.0796607954062267e+00
      - -7.5479135478545412e-01
      - 2.0762185872560641e+00
      - -7.5941428915738884e-01
      - 2.0590704882763546e+00
      - -7.8470301806763676e-01
      - 2.0380299740907262e+00
      - -8.2307738518430718e-01
      - 2.0257188597495519e+00
      - -8.5197367946083646e-01
      - 2.0173158361163264e+00
      - -8.7678375204590575e-01
      - 2.0125577668244952e+00
      - -8.9404167388973732e-01
      - 2.0089858404458978e+00
      - -9.0959283182453055e-01
      - 2.0047872727012392e+00
      - -9.3316212476652949e-01
      - 2.0017714047444630e+00
      - -9.5878832462545005e-01
      - 2.0004328624724437e+00
      - -9.7940995832696964e-01
      - 2.0000407895236045e+00
      - -1.0064070949701254e+00
      - 2.0013701467705816e+00
      - -1.0377069060806727e+00
      - 2.0030740933319096e+00
      - -1.0570028545512002e+00
      - 2.0052885861814178e+00
      - -1.0754150184366018e+00
      - 2.0102795182162376e+00
      - -1.1066579118687307e+00
      - 2.0240178589231794e+00
      - -1.1674504725251895e+00
      - 2.0591652378374046e+00
      - -1.2746139825836293e+00
      - 2.1199102496635729e+00
      - -1.4113877167426219e+00
      - 2.2145121740611957e+00
      - -1.5826675322717816e+00
      - 2.3014426107641266e+00
      - -1.7200713933421863e+00
      - 2.3905744567923763e+00
      - -1.8500479162562962e+00
      - 2.4911374110188373e+00
      - -1.9881597101306765e+00
      - 2.6363303087365040e+00
      - -2.1769779245287091e+00
      - 2.9641233722133675e+00
      - -2.5759112376563409e+00
      - 2.0122999129056649e+00
      - -1.1172253131708587e+00
      - 2.0003330486893369e+00
      - -1.0184169057021735e+00
      - 2.0013331939376582e+00
      - -9.6414758426069247e-01
      - 2.0052286880799626e+00
      - -9.3025743093057711e-01
      - 2.0086227328715593e+00
      - -9.1135266188315001e-01
      - 2.0069827448889836e+00
      - -9.1985564700057565e-01
      - 2.0086998988944722e+00
      - -9.1097532251536861e-01
      - 2.0080345033854479e+00
      - -9.1429188350395307e-01
      - 2.0083175711916388e+00
      - -9.1286329452823722e-01
      - 2.0109549038115619e+00
      - -9.0066854822416476e-01
      - 2.0144845507091715e+00
      - -8.8667278808071903e-01
      - 2.0162204817471823e+00
      - -8.8049261766186659e-01
      - 2.0119839896459721e+00
      - -8.9635671925927485e-01
      - 2.0059915801256762e+00
      - -9.2553254146211805e-01
      - 2.0021728916348152e+00
      - -9.5445950082495412e-01
      - 2.0000179991101867e+00
      - -1.0042515449206617e+00
      - 2.0020386162625878e+00
      - -1.0461818507042537e+00
      - 2.0079604087196943e+00
      - -1.0932900624184076e+00
      - 2.0180834255387627e+00
      - -1.1438199680948111e+00
      - 2.0322542274282296e+00
      - -1.1964443653152237e+00
      - 2.0470950338182448e+00
      - -1.2418352155337355e+00
      - 2.0749098854748675e+00
      - -1.3137025820220649e+00
      - 2.1234366321474916e+00
      - -1.4184335844412079e+00
      - 2.1924511491720620e+00
      - -1.5453475072240102e+00
      - 2.2519391412858139e+00
      - -1.6434707532635577e+00
      - 2.3026137536402693e+00
      - -1.7218395442576204e+00
      - 2.3456022520834994e+00
      - -1.7855510597380300e+00
      - 2.4098405115956956e+00
      - -1.8771053663380550e+00
      - 2.4783682583338544e+00
      - -1.9710156029224604e+00
      - 2.5476577710363726e+00
      - -2.0629043125722188e+00
      - 2.6370114263010129e+00
      - -2.1778411049565958e+00
      - 2.7817579039258011e+00
      - -2.3575972454762781e+00
   output_scale:
      - 5.2631578947368418e-01
      - 4.9999999999999994e-01
      - 5.2631578947368418e-01
      - 4.9999999999999994e-01
      - 5.2631578947368418e-01
      - 4.9999999999999994e-01
      - 5.2631578947368418e-01
      - 4.9999999999999994e-01
      - 5.2631578947368418e-01
      - 4.9999999999999994e-01
      - 5.2631578947368418e-01
      - 4.9999999999999994e-01
      - 5.2631578947368418e-01
      - 4.9999999999999994e-01
      - 5.2631578947368418e-01
      - 4.9999999999999994e-01
      - 5.2631578947368418e-01
      - 4.9999999999999994e-01
      - 5.2631578947368418e-01
      - 4.9999999999999994e-01
      - 5.2631578947368418e-01
      - 4.9999999999999994e-01
      - 5.2631578947368418e-01
      - 4.9999999999999994e-01
      - 5.2631578947368418e-01
      - 4.9999999999999994e-01
      - 5.2631578947368418e-01
      - 4.9999999999999994e-01
      - 5.2631578947368418e-01
      - 4.9999999999999994e-01
      - 5.2631578947368418e-01
      - 4.9999999999999994e-01
      - 5.2631578947368418e-01
      - 4.9999999999999994e-01
      - 5.2631578947368418e-01
      - 4.9999999999999994e-01
      - 5.2631578947368418e-01
      - 4.9999999999999994e-01
      - 5.2631578947368418e-01
      - 4.9999999999999994e-01
      - 5.2631578947368418e-01
      - 4.9999999999999994e-01
      - 5.2631578947368418e-01
      - 4.9999999999999994e-01
      - 5.2631578947368418e-01
      - 4.9999999999999994e-01
      - 5.2631578947368418e-01
      - 4.9999999999999994e-01
      - 5.2631578947368418e-01
      - 4.9999999999999994e-01
      - 5.2631578947368418e-01
      - 4.9999999999999994e-01
      - 5.2631578947368418e-01
      - 4.9999999999999994e-01
      - 5.2631578947368418e-01
      - 4.9999999999999994e-01
      - 5.2631578947368418e-01
      - 4.9999999999999994e-01
      - 5.2631578947368418e-01
      - 4.9999999999999994e-01
      - 5.2631578947368418e-01
      - 4.9999999999999994e-01
      - 5.2631578947368418e-01
      - 4.9999999999999994e-01
      - 5.2631578947368418e-01
      - 4.9999999999999994e-01
      - 5.2631578947368418e-01
      - 4.9999999999999994e-01
      - 5.2631578947368418e-01
      - 4.9999999999999994e-01
      - 5.2631578947368418e-01
      - 4.9999999999999994e-01
      - 5.2631578947368418e-01
      - 4.9999999999999994e-01
      - 5.2631578947368418e-01
      - 4.9999999999999994e-01
      - 5.2631578947368418e-01
      - 4.9999999999999994e-01
      - 5.2631578947368418e-01
      - 4.9999999999999994e-01
      - 5.2631578947368418e-01
      - 4.9999999999999994e-01
      - 5.2631578947368418e-01
      - 4.9999999999999994e-01
      - 5.2631578947368418e-01
      - 4.9999999999999994e-01
      - 5.2631578947368418e-01
      - 4.9999999999999994e-01
      - 5.2631578947368418e-01
      - 4.9999999999999994e-01
      - 5.2631578947368418e-01
      - 4.9999999999999994e-01
      - 5.2631578947368418e-01
      - 4.9999999999999994e-01
      - 5.2631578947368418e-01
      - 4.9999999999999994e-01
      - 5.2631578947368418e-01
      - 4.9999999999999994e-01
      - 5.2631578947368418e-01
      - 4.9999999999999994e-01
      - 5.2631578947368418e-01
      - 4.9999999999999994e-01
      - 5.2631578947368418e-01
      - 4.9999999999999994e-01
      - 5.2631578947368418e-01
      - 4.9999999999999994e-01
      - 5.2631578947368418e-01
      - 4.9999999999999994e-01
      - 5.2631578947368418e-01
      - 4.9999999999999994e-01
      - 5.2631578947368418e-01
      - 4.9999999999999994e-01
      - 5.2631578947368418e-01
      - 4.9999999999999994e-01
      - 5.2631578947368418e-01
      - 4.9999999999999994e-01
      - 5.2631578947368418e-01
      - 4.9999999999999994e-01
      - 5.2631578947368418e-01
      - 4.9999999999999994e-01
      - 5.2631578947368418e-01
      - 4.9999999999999994e-01
      - 5.2631578947368418e-01
      - 4.9999999999999994e-01
   inv_output_scale:
      - 1.8999999999999999e+00
      - -9.4999999999999996e-01
      - 1.8999999999999999e+00
      - -9.4999999999999996e-01
      - 1.8999999999999999e+00
      - -9.4999999999999996e-01
      - 1.8999999999999999e+00
      - -9.4999999999999996e-01
      - 1.8999999999999999e+00
      - -9.4999999999999996e-01
      - 1.8999999999999999e+00
      - -9.4999999999999996e-01
      - 1.8999999999999999e+00
      - -9.4999999999999996e-01
      - 1.8999999999999999e+00
      - -9.4999999999999996e-01
      - 1.8999999999999999e+00
      - -9.4999999999999996e-01
      - 1.8999999999999999e+00
      - -9.4999999999999996e-01
      - 1.8999999999999999e+00
      - -9.4999999999999996e-01
      - 1.8999999999999999e+00
      - -9.4999999999999996e-01
      - 1.8999999999999999e+00
      - -9.4999999999999996e-01
      - 1.8999999999999999e+00
      - -9.4999999999999996e-01
      - 1.8999999999999999e+00
      - -9.4999999999999996e-01
      - 1.8999999999999999e+00
      - -9.4999999999999996e-01
      - 1.8999999999999999e+00
      - -9.4999999999999996e-01
      - 1.8999999999999999e+00
      - -9.4999999999999996e-01
      - 1.8999999999999999e+00
      - -9.4999999999999996e-01
      - 1.8999999999999999e+00
      - -9.4999999999999996e-01
      - 1.8999999999999999e+00
      - -9.4999999999999996e-01
      - 1.8999999999999999e+00
      - -9.4999999999999996e-01
      - 1.8999999999999999e+00
      - -9.4999999999999996e-01
      - 1.8999999999999999e+00
      - -9.4999999999999996e-01
      - 1.8999999999999999e+00
      - -9.4999999999999996e-01
      - 1.8999999999999999e+00
      - -9.4999999999999996e-01
      - 1.8999999999999999e+00
      - -9.4999999999999996e-01
      - 1.8999999999999999e+00
      - -9.4999999999999996e-01
      - 1.8999999999999999e+00
      - -9.4999999999999996e-01
      - 1.8999999999999999e+00
      - -9.4999999999999996e-01
      - 1.8999999999999999e+00
      - -9.4999999999999996e-01
      - 1.8999999999999999e+00
      - -9.4999999999999996e-01
      - 1.8999999999999999e+00
      - -9.4999999999999996e-01
      - 1.8999999999999999e+00
      - -9.4999999999999996e-01
      - 1.8999999999999999e+00
      - -9.4999999999999996e-01
      - 1.8999999999999999e+00
      - -9.4999999999999996e-01
      - 1.8999999999999999e+00
      - -9.4999999999999996e-01
      - 1.8999999999999999e+00
      - -9.4999999999999996e-01
      - 1.8999999999999999e+00
      - -9.4999999999999996e-01
      - 1.8999999999999999e+00
      - -9.4999999999999996e-01
      - 1.8999999999999999e+00
      - -9.4999999999999996e-01
      - 1.8999999999999999e+00
      - -9.4999999999999996e-01
      - 1.8999999999999999e+00
      - -9.4999999999999996e-01
      - 1.8999999999999999e+00
      - -9.4999999999999996e-01
      - 1.8999999999999999e+00
      - -9.4999999999999996e-01
      - 1.8999999999999999e+00
      - -9.4999999999999996e-01
      - 1.8999999999999999e+00
      - -9.4999999999999996e-01
      - 1.8999999999999999e+00
      - -9.4999999999999996e-01
      - 1.8999999999999999e+00
      - -9.4999999999999996e-01
      - 1.8999999999999999e+00
      - -9.4999999999999996e-01
      - 1.8999999999999999e+00
      - -9.4999999999999996e-01
      - 1.8999999999999999e+00
      - -9.4999999999999996e-01
      - 1.8999999999999999e+00
      - -9.4999999999999996e-01
      - 1.8999999999999999e+00
      - -9.4999999999999996e-01
      - 1.8999999999999999e+00
      - -9.4999999999999996e-01
      - 1.8999999999999999e+00
      - -9.4999999999999996e-01
      - 1.8999999999999999e+00
      - -9.4999999999999996e-01
      - 1.8999999999999999e+00
      - -9.4999999999999996e-01
      - 1.8999999999999999e+00
      - -9.4999999999999996e-01
      - 1.8999999999999999e+00
      - -9.4999999999999996e-01
      - 1.8999999999999999e+00
      - -9.4999999999999996e-01
      - 1.8999999999999999e+00
      - -9.4999999999999996e-01
   weights:
      -
         - -1.8136442319368409e+00
         - -2.9793946603547633e-01
         - -3.7871582768007142e+00
         - -2.9188369155862639e+00
         - 6.7494072645231791e+00
         - -7.7354744046577384e-01
         - -2.0976047421605100e+00
         - -6.1217983481081550e-01
         - 1.3864981889675845e+00
         - -1.0418448350251982e+01
         - 4.3844632351512445e+00
         - -1.1261122728172435e+00
         - -6.7817082034333867e+00
         - 6.2409095232924205e-01
         - -4.8384762472443121e+00
         - 2.8247976762542324e+00
         - 4.2530636705698290e+00
         - 3.2098122775796734e-01
         - 2.8042393912006469e+00
         - 1.2142029228551698e+00
         - -1.3736008115591896e+00
         - -7.9304330621355645e-01
         - -2.8355313795435140e+00
         - 9.5581762572266147e+00
         - -3.0787615491731790e+00
         - 1.9285527191874559e+00
         - 3.6012975662784701e+00
         - -9.4644995610791072e-01
         - -1.7778985197974100e+00
         - 5.9698295489221087e-01
         - -1.0507626901625207e+00
         - 8.1907136120531661e+00
         - -1.4570301550679869e+00
         - -4.7537168665954201e+00
         - 1.5291986216413429e+00
         - 2.5774340288001509e+00
         - 2.8979173681391128e-02
         - -1.1649784374139158e+00
         - 4.0507399111257509e+00
         - -6.7798728036742162e-01
         - -1.0639931779238869e+00
         - 1.5994335653527708e-01
         - 6.2246598852710919e+00
         - -7.0854576457460956e+00
         - -4.3243903275836590e+00
         - -4.9130901921771928e+00
         - -6.1166811119647395e+00
         - 6.8999026758239630e+00
         - 9.0401359749633770e-01
         - 1.2155083364796777e+00
         - 3.3501630798554065e+00
         - 6.4630846897231251e+00
         - 1.5027874232082217e-01
         - -4.0629030144613010e+00
         - -1.3109400407748935e+00
         - 4.6061990311210215e+00
         - 2.9618873954159866e+00
         - -4.9995050981053133e+00
         - 9.7148379784752397e+00
         - -1.3784045653532586e+00
         - 3.3455450538435438e+00
         - -1.1171001291396296e+01
         - 5.9243099976655855e-01
         - 1.1392051713373192e+00
         - 3.9466868480006858e+00
         - -1.1920137274941782e-01
         - -3.9755375077667403e+00
         - 5.1275221171782484e+00
         - -1.7151389240414430e+00
         - -6.5531311600575499e+00
         - -4.4961987255040352e+00
         - 6.9418604898144016e+00
         - 3.2164865134066939e-01
         - -3.9291735961593903e+00
         - 5.7539924236151103e+00
         - 1.6368206186624423e+00
         - -2.5546027803108973e-01
         - -2.7379489959598406e+00
         - 7.1241392323996209e+00
         - 4.8187580915975241e+00
         - -6.7763925072484037e+00
         - -2.6098068162745114e+00
         - -3.2771850142360552e+00
         - -4.9947312214659298e+00
         - 6.3550187445342816e+00
         - -3.4679918056050774e+00
         - -4.8258374041957630e+00
         - 7.4665906195258520e+00
         - 1.5854457340373767e+00
         - 5.4581887415765413e+00
         - 3.3675816732530666e+00
         - 8.6854132423222041e-01
         - 6.2874659512409874e+00
         - -9.6267697806052919e+00
         - 1.8957110830802302e+00
         - 2.3734621282392587e+00
         - 3.7911933157879143e+00
         - 2.9643062038212137e-01
         - 3.3155618287952522e+00
         - 4.4530077247926885e+00
         - -3.6888279171635610e+00
         - 7.5970341030841437e+00
         - -2.7882994861552675e+00
         - 2.1683118081249941e+00
         - -1.5083988066888637e-01
         - -4.5166109821393485e+00
         - 6.5275872623744018e+00
         - -1.2139828503532781e+00
         - 2.2551172142319271e+00
         - -7.7500938405073718e+00
         - 6.8018306087374844e-02
         - -1.3207405254925690e+00
         - 7.4802805266358670e+00
         - -8.3634524563964363e-01
         - 4.2369690588305886e-01
         - -2.9657497213262531e+00
         - -3.7730652211109761e+00
         - -2.5621682641400780e+00
         - 2.9766089183069844e+00
         - -2.2094134459721206e+00
         - 2.5123538060093031e-01
         - -5.8441908615206177e+00
         - 2.5840607103261442e+00
         - -1.7037131587137055e+00
         - 3.1867030578871187e+00
         - -5.2058099186128519e+00
         - -2.5520038604761930e+00
         - 6.8514797052591359e+00
         - -6.0096735855861794e-01
         - -2.1856001806185881e+00
         - -8.6254663998726744e-01
         - -2.8750703281160267e-01
         - 5.0383056338340246e+00
         - -2.2161342392302776e+00
         - -2.5728582622851301e+00
         - 5.1369560815650690e+00
         - -1.6362959210998755e+00
         - 7.3498313899201531e+00
         - -1.6985120634701436e+00
         - -2.7378788683641564e+00
         - -3.0584818910859894e+00
         - -3.6818804059282382e+00
         - -3.9653285045491775e+00
         - 8.6345396383758786e+00
         - 5.5636468751970022e-02
         - -2.7188615458146032e-01
         - -2.4450269385920675e+00
         - 4.2956266919228592e-01
         - 1.5606728857787466e-01
         - -8.9919567776174281e-01
         - -4.7852288614477118e-01
         - 5.9325305029505415e+00
         - 3.7619847716868224e+00
         - -1.0132928138472815e-01
         - 4.1171200186998975e+00
         - 4.3064773057905459e+00
         - -2.5343522033368093e+00
         - 1.2822181170889053e+00
         - -4.4422312421417480e+00
         - 2.7219324744981157e+00
         - 6.5731288819417619e+00
         - 2.4129884216807204e-01
         - 4.9874795765212125e+00
         - 7.0529681797151724e+00
         - 7.2327336339087518e+00
         - 3.4893399599052322e-01
         - 1.5071052885732369e-01
         - -3.9450457890533730e-01
         - -8.1029983560852531e-02
         - -6.0544776441815022e+00
         - -2.8122203380875113e+00
         - -1.1964567893146812e+01
         - -6.7699726895398920e+00
         - -5.5405667247416499e+00
         - 1.0217432193446516e-01
         - 2.2888745855165800e+00
         - -3.5301129077636095e+00
         - -2.7903900262797268e+00
         - -2.6810538181005676e+00
         - 7.5266192126349396e-01
         - 3.4534762440817421e+00
         - -8.9094604499204255e+00
         - -2.8729659185229779e+00
         - 2.0686301595535728e+00
         - 2.1426873994594726e+00
         - 5.2357199833973800e+00
         - 3.3439347953412284e+00
         - -2.7116232927953172e+00
         - 1.3965240676580228e+00
         - -3.0666823730966819e-01
         - -8.7051012924865034e+00
         - 4.9829023365752629e+00
         - -2.2439888341966030e-01
         - -2.3083204725956286e+00
         - 4.7625970813945715e+00
         - 5.1295872605889796e+00
         - 1.2222982853702373e-01
         - 7.1943138342616064e-02
         - 3.2507088440724656e+00
         - 2.0931862092782216e+00
         - -1.0864583317925989e+00
         - -4.6734486299667308e+00
         - 1.1711349720982021e+00
         - -2.4075277020705088e+00
         - -3.1011978841169960e+00
         - 3.5648474093063296e+00
         - -4.1856003208474082e+00
         - 9.2468093097832487e+00
         - -2.5852653084998050e+00
         - -6.4307177869528553e+00
         - 1.1493088030621870e+00
         - 4.8808866494661274e+00
         - 2.3661714045014750e+00
         - -7.0192573863985270e+00
         - -2.8235724695936204e+00
         - 7.4649543203670756e+00
         - 2.5533435512898679e+00
         - -2.2779341434461684e+00
         - 3.9852043963660964e+00
         - -6.4542040103395655e+00
         - 3.6384973241034557e+00
         - -5.6611772892940113e+00
         - -3.9107725175055155e+00
         - -2.7150462926651402e+00
         - 5.1529723119500774e+00
         - 8.6580563901487217e-01
         - 1.0638282436037128e+00
         - 4.0727800259277922e+00
         - 1.4814879619514060e-01
         - -2.2382207654345940e+00
         - -7.8076056897656958e+00
         - 7.1212184443380522e-01
         - -8.7308167976061035e-01
         - 1.8210621218184313e+00
         - 2.2952210684350276e+00
         - -5.5804742943806049e+00
         - -4.4378661621221749e+00
         - -9.0263731370052245e+00
         - -9.0138802317823838e+00
         - 2.9447006421162429e+00
         - 4.1195274595885312e-01
         - -4.3019245264878272e+00
         - -4.7828866532323616e-01
         - 1.5560054823461886e+00
         - 7.1888445066725781e+00
         - -5.8840181611174796e+00
         - -2.1593204565158111e+00
         - 7.4151497631602059e-02
         - -1.2071551620173127e+00
         - 5.0017812533875787e+00
         - 2.6496065217687219e+00
         - -5.0790693581262669e+00
         - 5.0473662488655018e+00
         - -8.7943663547754660e+00
         - 1.0296773318675533e-01
         - -2.2204694875926045e+00
         - 2.6527274994741461e+00
         - -1.4077205147328359e-04
         - -5.0885142254498668e+00
         - 2.8411882422763153e+00
         - 5.0717308666941232e+00
         - 3.2043041261229654e+00
         - -5.4419332844909123e+00
         - -4.6635456419037071e+00
         - 2.5807137065186394e+00
         - 1.6909436021522601e+00
         - 4.2650240034920399e-02
         - -1.4648342748307168e+00
         - -2.7555984298470051e+00
         - -5.6362515297625100e+00
         - 1.7408298244992702e+00
         - -3.7698166870168892e+00
         - -8.3034784766934919e+00
         - -5.5265508490238755e+00
         - 3.5342067661983751e+00
         - 1.5005853318296218e+00
         - 7.7904332220889723e+00
         - -3.5011418324603788e-01
         - 1.5562162155201544e+00
         - -3.4050102832595162e+00
         - -1.2285256574106833e+00
         - 8.1291668084952118e+00
         - 1.1581677939654058e+00
         - -6.9178041219181816e+00
         - -4.7495663396774965e+00
         - -9.1450386421606140e+00
         - -3.3864833329798318e+00
         - -5.5491878578718747e+00
         - 3.5055763161542813e-01
         - -1.4988240484178079e+00
         - -1.2350836483289129e+00
         - -8.1012000931602102e-01
         - 7.3646844335295674e+00
         - -3.6850020420057183e+00
         - -8.9425545380935301e+00
         - 2.2579285093488708e+00
         - -6.0108779961092407e-01
         - -3.9416301484428717e+00
         - -2.4127849494697151e+00
         - -5.2263027347116982e+00
         - -1.3809687324661195e+00
         - -5.5125449518218952e+00
         - 1.6461222577884907e-01
         - -4.7732535299178585e+00
         - -8.4361567886962927e+00
         - 5.4844345568665087e-01
         - 3.1247866582180839e+00
         - -4.8995544319345594e+00
         - -1.9310480549251277e+00
         - -1.0461689757512454e+01
         - 2.0461451896031839e+00
         - -3.4239755241784847e-01
         - -2.7294562294033731e+00
         - 1.1128730568203855e+00
         - -1.9039459793565725e+00
         - 2.7828716814161014e+00
         - -2.7586239167104267e+00
         - -3.2584702559122425e-01
         - -2.1082980198676520e+00
         - -7.2746996479226400e+00
         - -5.9855757135858234e-01
         - -8.2856211801224973e+00
         - 6.2224644225538583e-01
         - 3.6765036615478945e+00
         - 2.9303057233760510e-01
         - -9.2460934957279139e+00
         - -8.1362987319389413e-01
         - 2.0674610020621103e+00
         - 2.0795177606528181e+00
         - 1.0378839562202058e+00
         - 5.3465576760436564e+00
         - -8.0227724579605528e+00
         - -1.1456512771992791e+00
         - -4.8467179761867945e+00
         - -2.5709917784744762e-01
         - -4.4464814096758651e+00
         - -7.3321805060505003e+00
         - -8.3908940316182683e+00
         - -6.7532183115409978e+00
         - -9.5552293757836482e-01
         - 7.8158711738337550e-01
         - 5.9828423275649980e+00
         - -1.4063249323644069e+00
         - 5.1151370874661373e+00
         - 3.8537006543299984e-01
         - 4.3069810779143927e+00
         - 5.2856142153685743e+00
         - -1.2358310421642749e+00
         - -1.7373729386536589e+00
         - -3.3975295128460741e+00
         - -8.5152696525076497e+00
         - -1.9690279189420670e+00
         - 2.5780333063171210e+00
         - 5.5641171925810626e+00
         - -3.6599240988917372e+00
         - 5.1694529699583907e+00
         - 3.0949656391723723e-01
         - 2.6025599209100587e+00
         - 3.4632701015412048e+00
         - 3.1144116675776722e-02
         - 2.3970058470995581e+00
         - 6.3095367739507413e-01
         - -6.0973914449282818e+00
         - -1.6387171674927703e+00
         - 1.8747412299285668e+00
         - 1.1606904108489464e+00
         - -2.8799768409002837e+00
         - -5.2462630687065603e+00
         - 3.6584217460532109e-01
         - 9.4454035597739363e+00
         - -3.7970043897427370e+00
         - 6.0532859543280955e+00
         - 5.7358436275385181e+00
         - -1.9756082246980557e+00
         - -1.4950150151095187e+00
         - 3.1560034730836009e+00
         - 1.7052858298085840e+00
         - 8.0069348431440401e-01
         - -4.2510257555519182e+00
         - -2.1667417606020343e-02
         - -4.7976937835428185e-01
         - -6.5734378101825341e-01
         - 2.8212397747429412e+00
         - 2.3178778565346692e+00
         - 1.7635440201872574e+00
         - -4.1178286455305274e-01
         - 4.2233490099944854e-01
         - 3.3184427486277399e+00
         - -4.7264326857071236e-02
         - -4.7569734818227820e+00
         - 3.4009032277939917e+00
         - 1.4272603857523802e+00
         - 3.4518287086679131e+00
         - 5.8895290435646421e+00
         - 6.3737449422638726e+00
         - 1.1872043964791659e+00
         - 2.9508431774194888e+00
         - -6.8809045110646261e-01
         - -1.1589312909066792e-01
         - -9.6184491934297311e-01
         - 1.8063469372407048e+00
         - 3.7772047321575895e+00
         - -5.3895971865716952e+00
         - -2.9727853126645170e+00
         - 5.8584642627257102e+00
         - -9.0625203972346613e-01
         - 1.2107466392717670e+00
         - 2.7966013572974631e+00
         - 3.6718970605958972e+00
         - -4.5155088803998273e+00
         - 8.5232719281364115e+00
         - 4.4595861171881044e+00
         - -1.8076309222062725e+00
         - 1.1514286563149426e+01
         - -2.4388128376135145e+00
         - -1.9250607655390733e-01
         - 6.5883062312437826e+00
         - 4.2065930059853995e+00
         - -9.2849297147026153e+00
         - -1.4395955621177807e+00
         - -5.8260492368863337e-01
         - -3.5630722811023413e-01
         - -4.7053817577256546e-01
         - 4.2848867326451954e+00
         - 4.5623179975734534e+00
         - -6.8978859997803754e+00
         - 8.6998917124941819e+00
         - -4.6322349037436421e+00
         - 8.8277806146470261e-01
         - 5.7357242647183018e+00
         - 1.0821983949332152e+00
         - -1.0806313466285065e+00
         - 4.0768252104818981e+00
         - 2.9166869441358330e+00
         - -5.0176627940060667e+00
         - 5.0167991030793635e+00
         - 4.0654465578224830e+00
         - 1.3120770055813316e+00
         - -1.0992805559333178e+01
         - -1.6083823427239091e-01
         - -1.3315985377131601e+00
         - 1.2523306344236786e+00
         - 8.5494881076283864e+00
         - -3.6702302013484864e+00
         - 3.1451271194795836e+00
         - 7.5637827639572963e+00
         - 4.0779996252018043e+00
         - -7.0721347868348072e+00
         - -1.9220084879135659e+00
         - 4.0984713286686922e+00
         - 6.9939796792103315e-01
         - -2.7266240172452587e+00
         - 1.5873008202470080e+00
         - -5.5659961867023151e+00
         - 1.3344042649819552e+00
         - -2.0556976714997641e+00
         - -6.9763671246996868e+00
         - -5.0535076611889576e+00
         - 4.1826750794154632e+00
         - 8.5787609081441152e-01
         - 2.8168663328982513e+00
         - -1.1727924408355739e+00
         - 7.7889563217821998e+00
         - -3.4937096816954889e+00
         - 1.3571210952427650e+01
         - 7.5319608050203746e+00
         - 1.2961684185277011e+00
         - -2.3408991376958239e+00
         - 6.7048711993281973e+00
         - -8.8227812019735250e+00
         - 1.0272433054405650e+00
         - -9.3738316932428773e+00
         - -3.7829577869776632e+00
         - -7.1970629415609100e+00
         - 3.2130443656157461e+00
         - 2.8156658280573637e+00
         - -2.3780736730143257e+00
         - 3.3069378628097499e+00
         - 5.4153153105442469e+00
         - -8.8820585260364227e-01
         - 2.2132972842493043e+01
         - 4.1371558401142172e+00
         - -4.6889493939420507e-01
         - -5.6877074738215230e+00
         - -1.6243448627199555e+00
         - -1.6052954438515403e+01
         - -4.1091943127787198e+00
         - 2.2268500439219566e-01
         - 4.3704514161771426e+00
         - -1.4930705716776536e+01
         - 7.2852291367403712e+00
         - -2.4396503544640717e+00
         - 4.5629477613611567e+00
         - 4.5607717029599248e+00
         - 8.1684211293073528e+00
         - -2.4386573611710066e-01
         - 2.4671111204477594e+01
         - 3.1386077795491198e+00
         - 1.1490417731807070e+00
         - -1.1808237773002777e+00
         - 8.4450597507772436e+00
         - -5.7980042337350408e+00
         - -8.7328101022504345e+00
         - -3.7528860219916282e+00
         - -2.6076762990743974e+00
         - -1.5139455251888627e+01
         - 9.6424145916222681e+00
         - 5.6546553608083006e-01
         - 7.2674470906224444e+00
         - -9.1042996881451188e+00
         - 1.2154564481667979e+01
         - -3.9480881845115632e+00
         - -5.6148306332531428e+00
         - 3.0552320128414873e-01
         - -4.0245494615798645e+00
         - -3.5310358407886349e+00
         - 4.5107966729161048e-01
         - -4.7573607648838383e+00
         - 2.8509543034536733e-01
         - 5.3801423317543868e+00
         - -2.8906627848362434e+00
         - -3.3907609717501512e+00
         - -2.9393136472877592e+00
         - 6.7209729544742824e+00
         - -4.8809227219160771e+00
         - -5.7432070278025522e+00
         - 9.7821665785124825e+00
         - 4.7610172549777117e+00
         - -1.7278621715284515e+00
         - -2.6341965749573721e+00
         - 3.8559625412990362e+00
         - -3.4801691274827040e+00
         - -1.8191770141697285e+00
         - -5.0774069502844699e-01
         - -2.9592620055601118e+00
         - 1.1692626242927780e+01
         - -1.0685373860111755e+00
         - 2.6828269525661357e+00
         - 4.9514252884533709e+00
         - 9.4119555737016327e+00
         - -2.5234310410909599e+00
         - -2.8946358099943352e+00
         - 3.0923039050160033e+00
         - 1.8033407603183420e+00
         - -4.2746559402613515e+00
         - 2.8195243211015768e+00
         - 5.7042242127571399e+00
         - -5.9782544238192701e+00
         - 3.0427701228340189e+00
         - 2.1225797387974352e+00
         - 4.2310768095623779e+00
         - 9.4246521842422482e+00
         - 1.0112696358355808e+00
         - -8.6842401801762144e+00
         - 9.6727027607987670e-01
         - -1.6104928633215088e+00
         - 3.9558667893005079e+00
         - 2.1938590136454259e+00
         - -7.9398618083095651e-01
         - 5.4511483928924731e+00
         - -3.7216654831010748e-02
         - 7.3703553498334262e-01
         - 8.4019387471627471e+00
         - -2.4348955603999148e-01
         - -1.6666964753086214e-01
         - 3.2615338151972750e+00
         - -2.5223192807828481e+00
         - 8.8847473985845529e+00
         - -1.1283531879191733e+00
         - -1.1420576918133512e+00
         - -1.5929742607918300e+00
         - 5.2740886834265144e+00
         - 1.8242532437777399e+00
         - -2.3087105611970449e+00
         - 3.6135142316986850e+00
         - 6.4206169667706234e+00
         - 4.3607254539900859e+00
         - -5.8004593110670850e+00
         - 1.1913371167257512e+01
         - 1.4616960421442691e+00
         - 2.5573972600408874e+00
         - -1.6953515338937903e+00
         - 2.1340995478286029e+00
         - 9.5151354168942355e+00
         - 2.8557942056350932e-01
         - 7.4799842087394692e+00
         - 1.4900514859003980e+01
         - -2.1510923652459142e+00
         - -8.5558480737611431e-01
         - -7.9681592867493398e+00
         - -1.6499707220870174e+00
         - 4.2977340502215000e+00
         - 4.1355287489085617e+00
         - 1.0031702665128868e+00
         - -8.2488170691308238e-01
         - -1.0150141935830659e+01
         - 4.9890772591440316e+00
         - 6.7177015920512133e+00
         - 1.4659388075074247e+00
         - 1.1717192381066676e+01
         - 4.4169316804674624e-01
         - -9.3237644807743425e-01
         - 8.3376552852177390e+00
         - 5.0702389294921755e+00
         - -6.3337856503693413e+00
         - -7.9194830451851068e+00
         - -9.3770216632122025e+00
         - 2.1667853462266318e+00
         - -3.5340128863607019e-03
         - 4.2803578441348833e-01
         - 4.6453214366732558e+00
         - -2.9579011910725015e+00
         - -3.8754807791157866e+00
         - -8.2343037818885001e-01
         - -1.4046613027435637e+00
         - 7.0646107668282809e+00
         - -1.6690829856546137e+00
         - 1.9188070128488672e+00
         - 1.2052085666286407e+01
         - 2.5233307411126464e+00
         - 3.2843308516080914e+00
         - -4.8493574226966846e-01
         - 3.0868285610961368e+00
         - -7.6947517475370377e+00
         - 5.2694724222608835e+00
         - -4.9396987555269362e-01
         - -3.3164442185839382e+00
         - 1.4260745632761707e+00
         - 7.7934630552006134e-01
         - 7.0174958647758379e+00
         - 2.6907612882359393e+00
         - 2.4772069615533541e+00
         - 4.6077279377714326e+00
         - 1.1921368089308417e+00
         - -1.9730597481110118e-01
         - -4.5453885716720208e+00
         - -5.5768673295793327e+00
         - -4.9359419495596732e+00
         - -6.6923255068502219e-01
         - 8.1017795215106521e+00
         - -7.7661104588672352e+00
         - -5.2622414868950129e-01
         - 4.0610190613415922e+00
         - 5.7405334820229004e-01
         - -1.3035206438931632e+00
         - -4.4087010223960288e+00
         - -9.0803966259123978e+00
         - 5.0247574419018726e+00
         - 4.2985435573251331e-02
         - 6.4639789358403776e+00
         - -2.4265976858097651e+00
         - 5.9911235704099246e+00
         - -3.7772902573677922e+00
         - 3.7299134388518884e+00
         - 9.6823951093796872e+00
         - 7.1858590845616002e+00
         - -3.8211749173191714e+00
         - -3.3771910480978451e+00
         - 4.6947538126313244e+00
         - -2.4225466206889013e+00
         - 7.1261439223327605e-01
         - -2.6577214635292892e+00
         - -7.1866694963980473e+00
         - -4.1228782288512172e-01
         - 3.4897561756774342e+00
         - 4.4385265999959280e+00
         - -5.0489439325899843e+00
         - 5.9547211764440862e+00
         - 1.3034679741798232e+00
         - 3.0128418368374255e+00
         - 3.8409961572130724e+00
         - 5.0669210915896539e+00
         - 4.1704138773115016e+00
         - 1.4071329642986889e+00
         - 2.0908004980646453e+00
         - 7.6214169565494929e+00
         - 3.7858782289468915e+00
         - -8.1115163565109629e+00
         - 1.8793465584155791e+00
         - 2.6026396843493176e+00
         - 3.0852212518167446e+00
         - -1.8711663561174298e-02
         - 2.7203678211024198e+00
         - -1.2230464466101976e+01
         - -2.8657417772636200e+00
         - 2.9020658052838657e+00
         - 2.1717909605908856e+00
         - 2.4971251478872687e+00
         - 2.4138172124189761e+00
         - -1.1080346992575518e+00
         - 4.2243982415502606e+00
         - 8.8218497070729764e+00
         - 2.0125921883691200e+00
         - 3.3372925206757431e-01
         - -5.6951492832937829e-02
         - 1.2933264512693716e+00
         - -7.2591736288354991e-01
         - 1.9789328062745268e+00
         - 4.3266451253981542e+00
         - -2.6796778281455085e+00
         - 2.5755917869841691e+00
         - -3.4516974843422354e+00
         - -8.9304171819786260e-01
         - -3.4109596323692553e+00
         - -4.2622456957881623e+00
         - 2.0948444770643002e+00
         - 2.2403897551124259e+00
         - 2.1151250984753489e-01
         - 1.6788706413534373e+00
         - -3.5035206098752614e+00
         - -2.6049691203982586e+00
         - 6.5027572095665640e+00
         - -3.3403253263855199e+00
         - 1.8464471296905314e+00
         - 5.5858635677676141e+00
         - 2.6094082229524092e+00
         - 1.9304731803808386e+00
         - -7.4895845781821793e+00
         - -1.6116954049205157e+00
         - 8.0396842190407247e-01
         - -8.1486737274091734e+00
         - 1.9932364286187019e+00
         - -5.4791773081942745e+00
         - -3.0181717114314216e-01
         - 4.2413187900058498e+00
         - 3.6901609802431010e+00
         - 3.0072182877680844e+00
         - 2.5710012036588923e+00
         - -6.3450754019042819e+00
         - -7.2875397371062913e+00
         - 2.3455293974423150e-01
         - -4.4403370774881683e+00
         - -4.7629559879006829e+00
         - -3.0109141144535059e+00
         - 1.9089529049254537e+00
         - 2.2397782975987806e+00
         - -3.2579008267312655e+00
         - 3.5520424949397906e+00
         - 5.6773297481289404e+00
         - 4.3285519028757874e-01
         - -3.7679203782864955e-02
         - 2.9603495565017790e-01
         - -3.0280656046947754e+00
         - 8.0331903021452489e-01
         - 1.0239417461766493e+00
         - -2.1335253972192270e+00
         - 3.3010710574144875e-01
         - 8.5204204764082392e-01
         - -7.9215429745355037e-01
         - -6.0992095644928650e+00
         - 3.5536036727678875e+00
         - -2.1283044726363318e+00
         - -3.0823376010402335e+00
         - -1.6875144550631773e+00
         - 2.0386309726791061e+00
         - 1.7240387400899676e-01
         - 4.5850389168529310e-01
         - -2.9508591477818769e+00
         - -4.6410064908818072e+00
         - 3.0295899427316240e+00
         - -1.5093425201250512e+00
         - 3.6909371593637239e+00
         - 5.4935826646744355e+00
         - 8.5226889440002882e+00
         - -5.8471477852148332e+00
         - -3.5801619372609044e+00
         - -2.8483297105107974e+00
         - -4.4537381562692540e+00
         - -7.8466910266700109e+00
         - 2.0507752829842532e+00
         - -3.1809220778903793e+00
         - 6.8542408490244284e+00
         - -1.4323928625138327e+00
         - -1.1652804390912421e+00
         - -3.3295969556561777e+00
         - 3.2163117414991160e+00
         - 2.3522332588230230e+00
         - 2.4996814846297171e+00
         - 3.7855633393822679e+00
         - -3.2729922740888169e+00
         - -3.4105697477244874e+00
         - 3.5481190372088340e+00
         - -7.4320137008650065e+00
         - -2.1956688730140401e+00
         - -5.0190502754157515e+00
         - -9.5972758312561501e-01
